{"learner":{"attributes":{"scikit_learn":"{\"_estimator_type\": \"classifier\"}"},"feature_names":["AttendingPhysician_Label_Encoded","OperatingPhysician_Label_Encoded","OtherPhysician_Label_Encoded","ClmDiagnosisCode_1_Label_Encoded","ClmDiagnosisCode_2_Label_Encoded","ClmDiagnosisCode_3_Label_Encoded","ClmDiagnosisCode_4_Label_Encoded","ClmDiagnosisCode_5_Label_Encoded","ClmDiagnosisCode_6_Label_Encoded","ClmDiagnosisCode_7_Label_Encoded","ClmDiagnosisCode_8_Label_Encoded","ClmDiagnosisCode_9_Label_Encoded","ClmDiagnosisCode_10_Label_Encoded","Physician_group_String_Label_Encoded","DiagnosisCode_group_String_Label_Encoded","ClaimCompletedSameDay","Provider_Label_Encoded","InscClaimAmtReimbursed"],"feature_types":["int","int","int","int","int","int","int","int","int","int","int","int","int","int","int","int","int","int"],"gradient_booster":{"model":{"gbtree_model_param":{"num_parallel_tree":"1","num_trees":"100"},"iteration_indptr":[0,1,2,3,4,5,6,7,8,9,10,11,12,13,14,15,16,17,18,19,20,21,22,23,24,25,26,27,28,29,30,31,32,33,34,35,36,37,38,39,40,41,42,43,44,45,46,47,48,49,50,51,52,53,54,55,56,57,58,59,60,61,62,63,64,65,66,67,68,69,70,71,72,73,74,75,76,77,78,79,80,81,82,83,84,85,86,87,88,89,90,91,92,93,94,95,96,97,98,99,100],"tree_info":[0,0,0,0,0,0,0,0,0,0,0,0,0,0,0,0,0,0,0,0,0,0,0,0,0,0,0,0,0,0,0,0,0,0,0,0,0,0,0,0,0,0,0,0,0,0,0,0,0,0,0,0,0,0,0,0,0,0,0,0,0,0,0,0,0,0,0,0,0,0,0,0,0,0,0,0,0,0,0,0,0,0,0,0,0,0,0,0,0,0,0,0,0,0,0,0,0,0,0,0],"trees":[{"base_weights":[-3.528568E-10,5.81582E-1,-1.5146895E-1,-6.318032E-1,8.7519974E-1,-5.7858354E-1,1.6494308E-3,1.2761924E0,-8.35345E-1,1.2963841E0,3.9172658E-1,-6.229275E-1,9.710518E-1,3.9116523E-1,-2.4152039E-1,1.7245247E0,7.736256E-1,-6.305124E-1,-1.6364625E0,1.3796711E0,-1.1393797E0,-8.8298583E-1,1.3166381E0,1.0586448E0,-6.4663595E-1,1.4903139E0,-7.586409E-1,1.1143586E-1,9.141934E-1,-7.0871335E-1,-4.4236384E-2,-5.8715E-1,1.751657E0,-1.2755373E0,1.4069339E0,-8.952377E-1,5.1133823E-1,-5.9870136E-1,-1.3083827E0,1.6032389E0,1.1035881E0,-1.3812068E0,9.793059E-1,-1.1120286E0,1.7871162E0,1.4252759E0,3.8764343E-1,-4.2683546E-2,1.4935694E0,-4.9661407E-1,-9.2770797E-1,1.6705397E0,-1.485274E0,1.1458925E0,-8.737707E-1,9.568444E-1,-3.402926E-1,1.6395564E0,7.970927E-1,-2.6120293E-1,-1.3807364E0,1.2373689E-1,-1.2185462E0,2.6442649E-2,-3.3333337E-1,5.904085E-1,4.8723692E-1,3.548941E-2,-4.2166913E-1,5.939256E-1,2.2372901E-1,-2.0262904E-1,-5.038326E-1,4.4295514E-1,-1.4324087E-1,-3.592945E-1,-5.916084E-1,3.8174623E-1,5.9978837E-1,7.3732205E-2,5.2645665E-1,-4.8011085E-1,-7.4100584E-2,4.0674803E-1,1.3028243E-1,3.633845E-1,-3.6346346E-1,5.971538E-1,-3.2572815E-1,3.6340025E-1,5.7949203E-1,-5.8793974E-1,1.77598E-1,5.6636554E-1,-3.014027E-1,-4.933758E-1,5.036503E-1,-2.566447E-1,-4.0393054E-2,-3.4439626E-1,-1.910925E-1,1.1591659E-1,5.861483E-1,-5.5465823E-1,-1.4562456E-1,5.317198E-1,-3.818182E-1,-4.3623084E-1,-1.9693361E-1,4.5282587E-1,1.936025E-1,-4.5211875E-1,-5.5682685E-2,1.5162951E-2,5.039983E-1,1.8516627E-1,3.7252554E-1,-1.7517859E-1,3.896837E-1,-5.136401E-1,-3.0972826E-1,-1.518895E-2,1.6988735E-1,-5.351312E-1,-3.1546488E-1],"categories":[],"categories_nodes":[],"categories_segments":[],"categories_sizes":[],"default_left":[0,0,0,0,0,0,0,0,0,0,0,0,0,0,0,0,0,0,0,0,0,0,0,0,0,0,0,0,0,0,0,0,0,0,0,0,0,0,0,0,0,0,0,0,0,0,0,0,0,0,0,0,0,0,0,0,0,0,0,0,0,0,0,0,0,0,0,0,0,0,0,0,0,0,0,0,0,0,0,0,0,0,0,0,0,0,0,0,0,0,0,0,0,0,0,0,0,0,0,0,0,0,0,0,0,0,0,0,0,0,0,0,0,0,0,0,0,0,0,0,0,0,0,0,0],"id":0,"left_children":[1,3,5,7,9,11,13,15,17,19,21,23,25,27,29,31,33,35,37,39,41,43,45,47,49,51,53,55,57,59,61,63,65,67,69,71,73,-1,75,77,79,81,83,85,87,89,91,93,95,97,99,101,103,105,107,109,111,113,115,117,119,121,123,-1,-1,-1,-1,-1,-1,-1,-1,-1,-1,-1,-1,-1,-1,-1,-1,-1,-1,-1,-1,-1,-1,-1,-1,-1,-1,-1,-1,-1,-1,-1,-1,-1,-1,-1,-1,-1,-1,-1,-1,-1,-1,-1,-1,-1,-1,-1,-1,-1,-1,-1,-1,-1,-1,-1,-1,-1,-1,-1,-1,-1,-1],"loss_changes":[1.1562201E4,9.662758E3,6.8101177E3,2.0533726E3,4.4461426E3,1.8889062E3,7.260571E3,1.1353339E2,7.826504E2,2.3689785E3,1.1989252E4,1.0657646E3,6.8809894E2,4.310331E3,4.3496895E3,1.7876953E1,3.1608063E2,1.150609E3,1.1191748E2,6.947383E2,1.9931757E2,2.6171252E3,5.941846E2,1.781561E2,1.110419E3,3.1813306E2,3.9869072E1,7.331411E3,8.707012E2,4.2134033E3,6.5454023E3,1.4655674E0,4.137329E0,1.0623642E1,6.876926E1,5.313655E2,6.847554E2,0E0,3.5177795E1,8.139492E2,2.8221553E3,8.591339E1,7.6544495E0,9.121714E2,1.997898E2,5.6917676E2,2.9778226E2,1.991914E2,1.5774316E2,2.2314146E3,5.8633936E2,2.0131079E2,1.1514969E1,1.8222778E1,2.0198944E1,1.1497896E3,2.2579092E3,9.154639E1,7.063574E2,4.236147E3,6.4469824E2,2.2402234E3,3.9008105E2,0E0,0E0,0E0,0E0,0E0,0E0,0E0,0E0,0E0,0E0,0E0,0E0,0E0,0E0,0E0,0E0,0E0,0E0,0E0,0E0,0E0,0E0,0E0,0E0,0E0,0E0,0E0,0E0,0E0,0E0,0E0,0E0,0E0,0E0,0E0,0E0,0E0,0E0,0E0,0E0,0E0,0E0,0E0,0E0,0E0,0E0,0E0,0E0,0E0,0E0,0E0,0E0,0E0,0E0,0E0,0E0,0E0,0E0,0E0,0E0,0E0,0E0],"parents":[2147483647,0,0,1,1,2,2,3,3,4,4,5,5,6,6,7,7,8,8,9,9,10,10,11,11,12,12,13,13,14,14,15,15,16,16,17,17,18,18,19,19,20,20,21,21,22,22,23,23,24,24,25,25,26,26,27,27,28,28,29,29,30,30,31,31,32,32,33,33,34,34,35,35,36,36,38,38,39,39,40,40,41,41,42,42,43,43,44,44,45,45,46,46,47,47,48,48,49,49,50,50,51,51,52,52,53,53,54,54,55,55,56,56,57,57,58,58,59,59,60,60,61,61,62,62],"right_children":[2,4,6,8,10,12,14,16,18,20,22,24,26,28,30,32,34,36,38,40,42,44,46,48,50,52,54,56,58,60,62,64,66,68,70,72,74,-1,76,78,80,82,84,86,88,90,92,94,96,98,100,102,104,106,108,110,112,114,116,118,120,122,124,-1,-1,-1,-1,-1,-1,-1,-1,-1,-1,-1,-1,-1,-1,-1,-1,-1,-1,-1,-1,-1,-1,-1,-1,-1,-1,-1,-1,-1,-1,-1,-1,-1,-1,-1,-1,-1,-1,-1,-1,-1,-1,-1,-1,-1,-1,-1,-1,-1,-1,-1,-1,-1,-1,-1,-1,-1,-1,-1,-1,-1,-1],"split_conditions":[8.14E2,2.49E2,2.096E3,1.2E1,4.55E2,7.3214E4,3.026E3,2.0064E4,1.92E2,6.7752E4,7.63E2,6.45E2,7.377E4,2.827E3,3.632E3,4.447E3,3.42269E5,1.69E2,2.11E2,3.4E2,5.10999E5,7.3638E4,8.03E2,3.64E2,1.498E3,1.554E3,3.244E3,2.199E3,2.838E3,3.325E3,4.694E3,6.383E3,4.968E3,2.1681E4,4.8907E4,1.18E2,1.2122E4,-5.9870136E-1,2.46E2,3.39E2,4.24E2,4E2,3.4E2,1.199E3,5.08954E5,7.98E2,1.0634E4,8.39E2,1.197E3,1.178E3,1.961E3,1.215E3,2.007E3,5.10999E5,9.77E2,1.3924E4,2.306E3,4.729E3,2.991E3,3.311E3,3.474E3,4.499E3,4.772E3,2.6442649E-2,-3.3333337E-1,5.904085E-1,4.8723692E-1,3.548941E-2,-4.2166913E-1,5.939256E-1,2.2372901E-1,-2.0262904E-1,-5.038326E-1,4.4295514E-1,-1.4324087E-1,-3.592945E-1,-5.916084E-1,3.8174623E-1,5.9978837E-1,7.3732205E-2,5.2645665E-1,-4.8011085E-1,-7.4100584E-2,4.0674803E-1,1.3028243E-1,3.633845E-1,-3.6346346E-1,5.971538E-1,-3.2572815E-1,3.6340025E-1,5.7949203E-1,-5.8793974E-1,1.77598E-1,5.6636554E-1,-3.014027E-1,-4.933758E-1,5.036503E-1,-2.566447E-1,-4.0393054E-2,-3.4439626E-1,-1.910925E-1,1.1591659E-1,5.861483E-1,-5.5465823E-1,-1.4562456E-1,5.317198E-1,-3.818182E-1,-4.3623084E-1,-1.9693361E-1,4.5282587E-1,1.936025E-1,-4.5211875E-1,-5.5682685E-2,1.5162951E-2,5.039983E-1,1.8516627E-1,3.7252554E-1,-1.7517859E-1,3.896837E-1,-5.136401E-1,-3.0972826E-1,-1.518895E-2,1.6988735E-1,-5.351312E-1,-3.1546488E-1],"split_indices":[16,16,16,16,16,0,16,0,16,0,16,0,0,16,16,0,14,16,16,16,14,0,16,0,16,16,2,16,16,16,16,3,0,0,0,16,0,0,16,16,16,16,16,2,14,16,0,16,16,16,16,16,16,14,16,0,16,2,16,16,16,16,16,0,0,0,0,0,0,0,0,0,0,0,0,0,0,0,0,0,0,0,0,0,0,0,0,0,0,0,0,0,0,0,0,0,0,0,0,0,0,0,0,0,0,0,0,0,0,0,0,0,0,0,0,0,0,0,0,0,0,0,0,0,0],"split_type":[0,0,0,0,0,0,0,0,0,0,0,0,0,0,0,0,0,0,0,0,0,0,0,0,0,0,0,0,0,0,0,0,0,0,0,0,0,0,0,0,0,0,0,0,0,0,0,0,0,0,0,0,0,0,0,0,0,0,0,0,0,0,0,0,0,0,0,0,0,0,0,0,0,0,0,0,0,0,0,0,0,0,0,0,0,0,0,0,0,0,0,0,0,0,0,0,0,0,0,0,0,0,0,0,0,0,0,0,0,0,0,0,0,0,0,0,0,0,0,0,0,0,0,0,0],"sum_hessian":[1.3125E5,2.7119355E4,1.0413065E5,5.28359E3,2.1835766E4,2.7478428E4,7.665222E4,5.08804E2,4.7747856E3,1.1668719E4,1.0167047E4,2.6714568E4,7.638587E2,2.9460695E4,4.7191523E4,2.676267E2,2.4117726E2,3.8039622E3,9.708236E2,1.1283337E4,3.8538205E2,4.275122E3,5.891925E3,3.7080435E2,2.6343764E4,5.8759753E2,1.762612E2,1.9195594E4,1.0265101E4,1.4010449E4,3.3181074E4,2.8652573E0,2.6476144E2,5.670046E1,1.844768E2,3.088211E3,7.157511E2,4.61E2,5.098236E2,6.231971E3,5.051365E3,3.4621332E2,3.9168743E1,3.9379097E3,3.3721252E2,5.274575E3,6.1734955E2,1.052328E2,2.6557156E2,1.7177867E4,9.165897E3,5.5445386E2,3.3143658E1,9.537314E0,1.6672389E2,6.684484E3,1.251111E4,1.4250205E3,8.84008E3,8.410895E3,5.599555E3,2.9029576E4,4.151496E3,1.6152573E0,1.25E0,9.283252E1,1.7192892E2,4.845772E0,5.1854687E1,9.777406E1,8.670274E1,2.413565E3,6.7464594E2,3.619536E2,3.537975E2,4.393236E2,7.05E1,3.398254E3,2.8337173E3,2.1805889E3,2.8707761E3,2.898035E2,5.6409832E1,2.2285658E1,1.6883087E1,1.6128857E2,3.776621E3,3.152036E2,2.2008915E1,3.7103306E3,1.5642446E3,4.875E1,5.6859955E2,3.4677658E1,7.0555145E1,1.4365257E1,2.512063E2,8.625214E3,8.552653E3,5.213125E3,3.952773E3,1.00635376E2,4.5381848E2,2.3682629E1,9.461029E0,7.787315E0,1.75E0,4.3874172E1,1.2284972E2,2.4083906E3,4.2760933E3,1.4634735E3,1.1047637E4,3.5420403E1,1.3896001E3,6.2957397E3,2.5443406E3,6.969781E3,1.4411134E3,2.8674312E3,2.7321238E3,2.0825285E4,8.204292E3,9.4461755E2,3.2068784E3],"tree_param":{"num_deleted":"0","num_feature":"18","num_nodes":"125","size_leaf_vector":"1"}},{"base_weights":[6.1245624E-4,4.118348E-1,-1.133527E-1,-4.5974725E-1,6.071294E-1,-4.689994E-1,-1.6365413E-3,9.591021E-1,-6.0692775E-1,9.629992E-1,2.6997554E-1,-1.3624183E0,-3.9749652E-1,2.532474E-1,-2.055528E-1,1.3068641E0,5.764119E-1,-4.531779E-1,-1.2326555E0,1.0250025E0,-8.4133935E-1,-6.433354E-1,7.6556164E-1,-8.3153075E-1,-1.5197334E0,1.0662414E0,-5.130313E-1,1.9282924E-1,1.5957718E0,-1.5761453E0,-1.2441047E-1,-4.9579754E-1,1.3294127E0,-9.4163936E-1,1.0507964E0,-6.433818E-1,3.7167308E-1,-4.6375856E-1,-9.6035737E-1,1.2024869E0,8.1032753E-1,-1.2079425E0,1.1436202E-2,-8.0815136E-1,1.3779099E0,1.0540838E0,1.9932018E-1,-4.302039E-1,-1.026118E0,-1.6530735E0,-1.2172184E0,-2.1563265E-1,1.588148E0,-1.4494588E0,-3.314641E-1,2.631539E-1,-6.2818164E-1,-4.3789876E-1,1.601653E0,-1.643522E0,-1.1534824E0,-3.9787408E-2,-8.886144E-1,2.1545734E-2,-2.8256765E-1,3.2680255E-1,4.4476107E-1,-1.3788225E-1,-3.956511E-1,4.6050903E-1,1.5960914E-1,-1.4353527E-1,-3.7905955E-1,3.7531415E-1,-7.6578975E-2,-2.6112357E-1,-4.589348E-1,2.7852958E-1,4.644992E-1,-5.8665365E-1,2.8457692E-1,-4.2709085E-1,2.3290401E-2,-1.0497855E-1,2.536286E-1,-4.670894E-1,-1.4867567E-1,4.6247172E-1,-2.3903354E-1,2.6412264E-1,4.4586927E-1,-2.245706E-1,4.256819E-1,-1.5685275E-1,4.7917032E-1,-5.013369E-1,-2.4331468E-1,-4.7172034E-1,-5.301466E-1,2.0678066E-1,-3.7202847E-1,4.1354296E-1,-7.593937E-2,5.5443674E-1,3.9313573E-1,-5.0135475E-1,-3.9432094E-1,2.1023558E-1,-1.8750602E-1,1.2697497E-2,1.9194545E-1,-3.66924E-1,-1.0657303E-1,2.029746E-1,-2.779099E-1,5.1354885E-1,4.578846E-1,-4.1378856E-1,-5.4544395E-1,-4.7035417E-1,-3.185636E-1,-1.640244E-1,2.6074825E-2,-2.3589909E-1,-5.176445E-1],"categories":[],"categories_nodes":[],"categories_segments":[],"categories_sizes":[],"default_left":[0,0,0,0,0,0,0,0,0,0,0,0,0,0,0,0,0,0,0,0,0,0,0,0,0,0,0,0,0,0,0,0,0,0,0,0,0,0,0,0,0,0,0,0,0,0,0,0,0,0,0,0,0,0,0,0,0,0,0,0,0,0,0,0,0,0,0,0,0,0,0,0,0,0,0,0,0,0,0,0,0,0,0,0,0,0,0,0,0,0,0,0,0,0,0,0,0,0,0,0,0,0,0,0,0,0,0,0,0,0,0,0,0,0,0,0,0,0,0,0,0,0,0,0,0],"id":1,"left_children":[1,3,5,7,9,11,13,15,17,19,21,23,25,27,29,31,33,35,37,39,41,43,45,47,49,51,53,55,57,59,61,63,65,67,69,71,73,-1,75,77,79,81,83,85,87,89,91,93,95,97,99,101,103,105,107,109,111,113,115,117,119,121,123,-1,-1,-1,-1,-1,-1,-1,-1,-1,-1,-1,-1,-1,-1,-1,-1,-1,-1,-1,-1,-1,-1,-1,-1,-1,-1,-1,-1,-1,-1,-1,-1,-1,-1,-1,-1,-1,-1,-1,-1,-1,-1,-1,-1,-1,-1,-1,-1,-1,-1,-1,-1,-1,-1,-1,-1,-1,-1,-1,-1,-1,-1],"loss_changes":[6.0309204E3,4.7535347E3,4.0034268E3,1.0681694E3,2.7369883E3,1.5380996E3,3.9853591E3,6.324182E1,4.4510864E2,1.2424912E3,5.30356E3,1.4776294E2,3.7721462E3,2.76403E3,4.737288E3,1.0867126E1,1.6714139E2,5.8391516E2,7.639453E1,4.078584E2,1.1545474E2,1.3742222E3,1.240687E3,3.1584442E1,5.346338E1,1.092109E3,3.5141636E3,1.8831869E3,1.8253418E1,6.590527E1,2.600859E3,1.0376672E0,7.51297E0,9.47776E0,4.3460815E1,3.0864868E2,3.8499847E2,0E0,2.3822174E1,5.550918E2,1.8601157E3,7.172095E1,3.4051956E1,8.9136206E2,1.119635E2,3.7631494E2,2.966431E3,2.6309746E1,3.685739E1,5.9804688E0,1.9370117E1,2.862655E1,8.1311035E1,9.832422E1,5.2474517E3,2.4987468E3,4.174171E2,3.3579502E0,9.540527E0,9.213428E1,1.0887878E1,2.3259426E3,3.4184863E2,0E0,0E0,0E0,0E0,0E0,0E0,0E0,0E0,0E0,0E0,0E0,0E0,0E0,0E0,0E0,0E0,0E0,0E0,0E0,0E0,0E0,0E0,0E0,0E0,0E0,0E0,0E0,0E0,0E0,0E0,0E0,0E0,0E0,0E0,0E0,0E0,0E0,0E0,0E0,0E0,0E0,0E0,0E0,0E0,0E0,0E0,0E0,0E0,0E0,0E0,0E0,0E0,0E0,0E0,0E0,0E0,0E0,0E0,0E0,0E0,0E0,0E0],"parents":[2147483647,0,0,1,1,2,2,3,3,4,4,5,5,6,6,7,7,8,8,9,9,10,10,11,11,12,12,13,13,14,14,15,15,16,16,17,17,18,18,19,19,20,20,21,21,22,22,23,23,24,24,25,25,26,26,27,27,28,28,29,29,30,30,31,31,32,32,33,33,34,34,35,35,36,36,38,38,39,39,40,40,41,41,42,42,43,43,44,44,45,45,46,46,47,47,48,48,49,49,50,50,51,51,52,52,53,53,54,54,55,55,56,56,57,57,58,58,59,59,60,60,61,61,62,62],"right_children":[2,4,6,8,10,12,14,16,18,20,22,24,26,28,30,32,34,36,38,40,42,44,46,48,50,52,54,56,58,60,62,64,66,68,70,72,74,-1,76,78,80,82,84,86,88,90,92,94,96,98,100,102,104,106,108,110,112,114,116,118,120,122,124,-1,-1,-1,-1,-1,-1,-1,-1,-1,-1,-1,-1,-1,-1,-1,-1,-1,-1,-1,-1,-1,-1,-1,-1,-1,-1,-1,-1,-1,-1,-1,-1,-1,-1,-1,-1,-1,-1,-1,-1,-1,-1,-1,-1,-1,-1,-1,-1,-1,-1,-1,-1,-1,-1,-1,-1,-1,-1,-1,-1,-1,-1],"split_conditions":[8.55E2,2.49E2,2.066E3,1.2E1,4.55E2,9.77E2,3.141E3,2.0064E4,1.92E2,6.7752E4,7.63E2,8.67E2,1.006E3,3.128E3,3.304E3,4.447E3,3.42269E5,1.69E2,2.11E2,3.4E2,4.94917E5,7.3638E4,8.03E2,3.226E4,9.66E2,9.93E2,1.178E3,3.026E3,3.64E2,3.276E3,4.694E3,6.383E3,1.8339E4,3.6485E4,4.8907E4,1.18E2,7.285E3,-4.6375856E-1,2.46E2,3.39E2,3.57E2,4E2,7.4109E4,6.21E2,5.08954E5,7.98E2,8.35E2,3.1185E4,3.5893E4,9.04E2,1.357E3,1.357E3,2.3361E4,1.048E3,1.242E3,2.809E3,3.083E3,6.99E2,2.781E4,3.168E3,8.967E3,3.632E3,4.964E3,2.1545734E-2,-2.8256765E-1,3.2680255E-1,4.4476107E-1,-1.3788225E-1,-3.956511E-1,4.6050903E-1,1.5960914E-1,-1.4353527E-1,-3.7905955E-1,3.7531415E-1,-7.6578975E-2,-2.6112357E-1,-4.589348E-1,2.7852958E-1,4.644992E-1,-5.8665365E-1,2.8457692E-1,-4.2709085E-1,2.3290401E-2,-1.0497855E-1,2.536286E-1,-4.670894E-1,-1.4867567E-1,4.6247172E-1,-2.3903354E-1,2.6412264E-1,4.4586927E-1,-2.245706E-1,4.256819E-1,-1.5685275E-1,4.7917032E-1,-5.013369E-1,-2.4331468E-1,-4.7172034E-1,-5.301466E-1,2.0678066E-1,-3.7202847E-1,4.1354296E-1,-7.593937E-2,5.5443674E-1,3.9313573E-1,-5.0135475E-1,-3.9432094E-1,2.1023558E-1,-1.8750602E-1,1.2697497E-2,1.9194545E-1,-3.66924E-1,-1.0657303E-1,2.029746E-1,-2.779099E-1,5.1354885E-1,4.578846E-1,-4.1378856E-1,-5.4544395E-1,-4.7035417E-1,-3.185636E-1,-1.640244E-1,2.6074825E-2,-2.3589909E-1,-5.176445E-1],"split_indices":[16,16,16,16,16,16,16,0,16,0,16,16,16,16,16,0,14,16,16,16,14,0,16,0,16,16,16,16,0,16,16,3,0,0,0,16,0,0,16,16,16,16,0,16,14,16,16,0,0,16,0,0,0,16,16,16,16,4,0,16,0,16,16,0,0,0,0,0,0,0,0,0,0,0,0,0,0,0,0,0,0,0,0,0,0,0,0,0,0,0,0,0,0,0,0,0,0,0,0,0,0,0,0,0,0,0,0,0,0,0,0,0,0,0,0,0,0,0,0,0,0,0,0,0,0],"split_type":[0,0,0,0,0,0,0,0,0,0,0,0,0,0,0,0,0,0,0,0,0,0,0,0,0,0,0,0,0,0,0,0,0,0,0,0,0,0,0,0,0,0,0,0,0,0,0,0,0,0,0,0,0,0,0,0,0,0,0,0,0,0,0,0,0,0,0,0,0,0,0,0,0,0,0,0,0,0,0,0,0,0,0,0,0,0,0,0,0,0,0,0,0,0,0,0,0,0,0,0,0,0,0,0,0,0,0,0,0,0,0,0,0,0,0,0,0,0,0,0,0,0,0,0,0],"sum_hessian":[1.2868504E5,2.7923957E4,1.00761086E5,5.111307E3,2.281265E4,2.408468E4,7.667641E4,4.798585E2,4.6314487E3,1.109738E4,1.17152705E4,1.7833909E3,2.230129E4,3.4079137E4,4.2597266E4,2.501368E2,2.297217E2,3.719292E3,9.1215643E2,1.0729123E4,3.682572E2,4.120796E3,7.594474E3,4.0909927E2,1.3742915E3,1.6308923E3,2.0670396E4,3.2612604E4,1.4665347E3,2.379874E3,4.021739E4,2.8308856E0,2.4730591E2,5.4460552E1,1.7526114E2,3.0225393E3,6.967527E2,4.220376E2,4.9011884E2,5.8707925E3,4.8583306E3,2.5725034E2,1.1100687E2,3.8106675E3,3.101285E2,5.0304175E3,2.5640566E3,1.3463402E2,2.7446527E2,9.507591E2,4.2353244E2,4.7205286E2,1.1588395E3,3.3558276E3,1.7314568E4,3.0040158E4,2.5724456E3,4.016989E0,1.4625177E3,2.0501685E3,3.2970578E2,3.6208902E4,4.0084905E3,1.614975E0,1.2159108E0,9.946966E1,1.4783624E2,2.4881819E1,2.9578733E1,8.963438E1,8.562676E1,2.3889595E3,6.3358E2,2.8957874E2,4.0717395E2,4.2544482E2,6.467402E1,3.277393E3,2.5933994E3,2.3067578E2,4.627655E3,2.2019818E2,3.7052143E1,7.785368E1,3.3153183E1,1.1210321E3,2.6896355E3,2.886932E2,2.1435305E1,3.5904807E3,1.439937E3,1.4429677E3,1.121089E3,1.2946075E2,5.1732593E0,6.6939545E1,2.0752571E2,5.655878E2,3.851713E2,4.676439E0,4.1885602E2,1.002713E1,4.6202573E2,5.955961E2,5.6324335E2,1.2660143E3,2.0898132E3,3.8334338E3,1.3481135E4,1.8938246E4,1.1101912E4,8.079501E2,1.7644955E3,1.1067446E0,2.9102445E0,5.85268E2,8.772497E2,8.1932855E2,1.2308398E3,5.677435E1,2.7293143E2,7.2394414E3,2.896946E4,3.573649E3,4.3484134E2],"tree_param":{"num_deleted":"0","num_feature":"18","num_nodes":"125","size_leaf_vector":"1"}},{"base_weights":[2.3895015E-4,3.4143424E-1,-8.0922E-2,-3.4778994E-1,5.1413405E-1,-3.1327394E-1,6.9463113E-4,7.7492076E-1,-4.57762E-1,9.536261E-1,3.4596315E-1,-1.3271037E0,-2.8123012E-1,1.1340331E0,-4.3138918E-2,1.0760142E0,4.5653555E-1,-3.340814E-1,-1.0039238E0,6.810562E-1,4.035735E-1,8.096029E-2,7.877077E-1,-1.435837E0,1.9264082E0,9.8505056E-1,-3.4008434E-1,7.3916084E-1,1.2379202E0,-2.288658E0,-3.1610638E-2,8.336404E-1,1.2423977E0,-7.328131E-1,8.375572E-1,-4.750113E-1,2.8156286E-1,-4.0253773E-1,-7.394716E-1,-6.305585E-1,8.756078E-1,2.709328E-1,-1.3749436E0,1.197019E0,6.0800594E-1,-1.2912325E0,-4.841406E-1,7.254987E-1,-3.658987E-1,1.7394114E0,4.8331743E-1,-1.0693157E0,-2.8777274E-1,1.6203755E0,-2.3541212E-2,5.4174167E-1,1.0955346E0,-7.6626253E-1,-6.6650975E-1,1.3105737E-2,-6.0885113E-1,3.902565E-1,-5.7031333E-1,1.7739822E-1,3.8040042E-1,-2.6065314E-1,1.457214E-1,1.4487927E-1,4.8232666E-1,-1.0286698E-1,-3.082682E-1,3.1555274E-1,-4.593987E-2,-1.9710062E-1,-3.9758042E-1,-6.724718E-1,-2.7136886E-2,3.180069E-1,2.1638446E-2,1.612336E-1,-5.311855E-2,-4.7935843E-1,-3.700221E-1,3.0770862E-1,4.170704E-1,5.797383E-2,3.0397552E-1,-3.9124298E-1,4.3849186E-3,3.9654592E-1,5.28878E-1,2.0210303E-1,-1.3907109E-1,-1.863602E-1,-3.6299926E-1,2.2383974E-1,-1.1035397E-1,1.6001442E-1,4.89005E-1,3.8799518E-1,-4.4945067E-1,3.5188395E-1,1.21673174E-1,-1.286739E-2,2.0476201E-1,-1.630359E-1,-4.292687E-1],"categories":[],"categories_nodes":[],"categories_segments":[],"categories_sizes":[],"default_left":[0,0,0,0,0,0,0,0,0,0,0,0,0,0,0,0,0,0,0,0,0,0,0,0,0,0,0,0,0,0,0,0,0,0,0,0,0,0,0,0,0,0,0,0,0,0,0,0,0,0,0,0,0,0,0,0,0,0,0,0,0,0,0,0,0,0,0,0,0,0,0,0,0,0,0,0,0,0,0,0,0,0,0,0,0,0,0,0,0,0,0,0,0,0,0,0,0,0,0,0,0,0,0,0,0,0,0],"id":2,"left_children":[1,3,5,7,9,11,13,15,17,19,21,23,25,27,29,31,33,35,37,39,-1,41,43,45,47,49,51,53,55,57,59,61,63,65,67,69,71,-1,73,75,77,79,81,83,85,87,-1,-1,-1,89,91,93,95,97,99,-1,101,-1,-1,103,105,-1,-1,-1,-1,-1,-1,-1,-1,-1,-1,-1,-1,-1,-1,-1,-1,-1,-1,-1,-1,-1,-1,-1,-1,-1,-1,-1,-1,-1,-1,-1,-1,-1,-1,-1,-1,-1,-1,-1,-1,-1,-1,-1,-1,-1,-1],"loss_changes":[3.4513718E3,2.8509495E3,1.9093729E3,5.929211E2,1.4151777E3,8.499175E2,3.701721E3,4.0590485E1,2.949817E2,5.6479346E2,1.6216335E3,2.8635706E2,1.8912557E3,1.1290625E2,1.8570411E3,7.816681E0,9.579137E1,3.0954047E2,7.1088806E1,7.984486E2,0E0,2.3955312E3,3.8133154E2,1.7893555E1,4.3731674E1,4.2577222E2,9.246301E2,3.901352E2,1.7552344E2,8.404541E-1,1.8423185E3,1.2052167E2,1.3859711E0,8.957466E0,4.2797684E1,2.1152045E2,2.2279562E2,0E0,2.1098755E1,3.517362E2,4.0345483E2,9.148066E2,2.9571167E1,5.099756E1,6.068384E2,7.3240356E0,0E0,0E0,0E0,2.0870361E0,1.2257648E2,1.0153601E2,1.8733661E3,1.9528198E0,6.08022E2,0E0,9.340405E1,0E0,0E0,2.4832505E3,2.7509485E2,0E0,0E0,0E0,0E0,0E0,0E0,0E0,0E0,0E0,0E0,0E0,0E0,0E0,0E0,0E0,0E0,0E0,0E0,0E0,0E0,0E0,0E0,0E0,0E0,0E0,0E0,0E0,0E0,0E0,0E0,0E0,0E0,0E0,0E0,0E0,0E0,0E0,0E0,0E0,0E0,0E0,0E0,0E0,0E0,0E0,0E0],"parents":[2147483647,0,0,1,1,2,2,3,3,4,4,5,5,6,6,7,7,8,8,9,9,10,10,11,11,12,12,13,13,14,14,15,15,16,16,17,17,18,18,19,19,21,21,22,22,23,23,24,24,25,25,26,26,27,27,28,28,29,29,30,30,31,31,32,32,33,33,34,34,35,35,36,36,38,38,39,39,40,40,41,41,42,42,43,43,44,44,45,45,49,49,50,50,51,51,52,52,53,53,54,54,56,56,59,59,60,60],"right_children":[2,4,6,8,10,12,14,16,18,20,22,24,26,28,30,32,34,36,38,40,-1,42,44,46,48,50,52,54,56,58,60,62,64,66,68,70,72,-1,74,76,78,80,82,84,86,88,-1,-1,-1,90,92,94,96,98,100,-1,102,-1,-1,104,106,-1,-1,-1,-1,-1,-1,-1,-1,-1,-1,-1,-1,-1,-1,-1,-1,-1,-1,-1,-1,-1,-1,-1,-1,-1,-1,-1,-1,-1,-1,-1,-1,-1,-1,-1,-1,-1,-1,-1,-1,-1,-1,-1,-1,-1,-1],"split_conditions":[8.14E2,2.49E2,2.096E3,1.2E1,3.4E2,8.35E2,2.128E3,2.0064E4,1.92E2,3.39E2,7.63E2,7.2607E4,8.55E2,3.6587E4,2.152E3,1.8339E4,3.42269E5,1.69E2,2.11E2,1.50507E5,4.035735E-1,7.19E2,7.75E2,8.28E2,7.2991E4,8.39E2,9.77E2,2.18E3,3.6603E4,1.3723E4,4.664E3,4.968E3,5.85E2,1.1E3,7.2991E4,1.18E2,4.968E3,-4.0253773E-1,2.46E2,2.79E2,5.1823E4,4.55E2,7.38E2,7.73E2,7.98E2,2.802E3,-4.841406E-1,7.254987E-1,-3.658987E-1,3.64E2,5.5114E4,8.67E2,1.006E3,8.64E2,2.105E3,5.4174167E-1,4.20774E5,-7.6626253E-1,-6.6650975E-1,4.552E3,4.964E3,3.902565E-1,-5.7031333E-1,1.7739822E-1,3.8040042E-1,-2.6065314E-1,1.457214E-1,1.4487927E-1,4.8232666E-1,-1.0286698E-1,-3.082682E-1,3.1555274E-1,-4.593987E-2,-1.9710062E-1,-3.9758042E-1,-6.724718E-1,-2.7136886E-2,3.180069E-1,2.1638446E-2,1.612336E-1,-5.311855E-2,-4.7935843E-1,-3.700221E-1,3.0770862E-1,4.170704E-1,5.797383E-2,3.0397552E-1,-3.9124298E-1,4.3849186E-3,3.9654592E-1,5.28878E-1,2.0210303E-1,-1.3907109E-1,-1.863602E-1,-3.6299926E-1,2.2383974E-1,-1.1035397E-1,1.6001442E-1,4.89005E-1,3.8799518E-1,-4.4945067E-1,3.5188395E-1,1.21673174E-1,-1.286739E-2,2.0476201E-1,-1.630359E-1,-4.292687E-1],"split_indices":[16,16,16,16,16,16,16,0,16,16,16,0,16,2,16,0,14,16,16,14,0,16,16,16,0,16,16,2,2,0,16,0,4,17,0,16,0,0,16,16,0,16,16,16,16,8,0,0,0,0,0,16,16,2,16,0,14,0,0,16,16,0,0,0,0,0,0,0,0,0,0,0,0,0,0,0,0,0,0,0,0,0,0,0,0,0,0,0,0,0,0,0,0,0,0,0,0,0,0,0,0,0,0,0,0,0,0],"split_type":[0,0,0,0,0,0,0,0,0,0,0,0,0,0,0,0,0,0,0,0,0,0,0,0,0,0,0,0,0,0,0,0,0,0,0,0,0,0,0,0,0,0,0,0,0,0,0,0,0,0,0,0,0,0,0,0,0,0,0,0,0,0,0,0,0,0,0,0,0,0,0,0,0,0,0,0,0,0,0,0,0,0,0,0,0,0,0,0,0,0,0,0,0,0,0,0,0,0,0,0,0,0,0,0,0,0,0],"sum_hessian":[1.2463346E5,2.3949238E4,1.0068423E5,4.798397E3,1.915084E4,2.6172287E4,7.451194E4,4.275429E2,4.370854E3,5.298708E3,1.3852133E4,8.006366E2,2.537165E4,2.773624E3,7.173831E4,2.1851556E2,2.0902734E2,3.5651277E3,8.057264E2,3.1258386E3,2.1728694E3,8.65886E3,5.1932725E3,7.7528503E2,2.5351568E1,1.1261512E3,2.42455E4,5.794115E2,2.1942124E3,3.6540762E2,7.137291E4,9.139266E1,1.271229E2,5.049265E1,1.585347E2,2.901224E3,6.639037E2,3.5196988E2,4.5375653E2,4.0347534E2,2.7223633E3,7.660146E3,9.9871423E2,1.5826862E3,3.6105864E3,4.3228745E2,3.429976E2,2.2123629E1,3.2279394E0,4.488436E2,6.773076E2,1.621541E3,2.2623959E4,2.6829868E2,3.1111285E2,4.3752426E2,1.7566882E3,6.61035E1,2.993041E2,6.624237E4,5.130538E3,7.850464E1,1.2888023E1,5.721717E0,1.21401184E2,4.568021E1,4.812438E0,1.0966712E2,4.8867577E1,2.3426807E3,5.5854333E2,2.389916E2,4.249121E2,3.9961896E2,5.413757E1,1.005136E2,3.0296173E2,2.2139067E3,5.0845645E2,4.8027715E3,2.857374E3,3.838571E2,6.148572E2,8.422099E2,7.404763E2,1.785077E3,1.8255093E3,4.280566E2,4.2308207E0,2.6977571E1,4.2186603E2,5.64176E2,1.13131615E2,3.8873038E2,1.2328107E3,1.6256324E3,2.0998326E4,2.8538902E0,2.6544476E2,1.644131E2,1.4669974E2,1.5788448E3,1.7784338E2,6.1129895E4,5.112475E3,4.753993E3,3.7654514E2],"tree_param":{"num_deleted":"0","num_feature":"18","num_nodes":"107","size_leaf_vector":"1"}},{"base_weights":[1.3059562E-3,2.6583394E-1,-5.773739E-2,-2.6481855E-1,4.004791E-1,-4.4417453E-1,-2.0863328E-2,2.9722163E-1,-4.0936512E-1,7.950741E-1,2.6097688E-1,-7.764017E-2,-8.9726216E-1,1.0818776E0,-5.0733767E-2,6.622597E-1,-1.865575E-1,-3.0449587E-1,-8.394044E-1,5.3260964E-1,3.6910242E-1,5.7842568E-2,6.136063E-1,-3.8216272E-1,9.2292416E-1,-1.0757426E0,-3.476689E-1,7.351028E-1,1.8672514E0,-3.3354908E-1,-4.401261E-4,-3.468694E-1,1.3247641E0,4.153648E-1,-6.743158E-1,-4.5111573E-1,2.154974E-1,-3.6801463E-1,-5.7585055E-1,-4.1616842E-1,6.9349724E-1,1.9785754E-1,-1.1389635E0,9.8762214E-1,4.6129265E-1,1.3186808E-2,-7.469189E-1,-6.096273E-1,9.4235104E-1,3.588998E-1,-1.0988197E0,7.9009676E-1,-1.6437693E0,1.4957266E0,3.2642594E-1,4.59542E-1,1.9189519E0,-9.508023E-1,-2.6383492E-1,5.074222E-1,-5.5396527E-2,1.6448857E-1,-4.071372E-1,2.7991354E-1,7.6092005E-1,3.4934603E-2,4.0250954E-1,-2.2667517E-1,8.084662E-2,-1.0174226E-1,-2.5716338E-1,-1.0887263E0,9.410883E-2,-1.4980476E-1,-3.6216807E-1,-4.116936E-1,-1.8828055E-2,2.725829E-1,4.609414E-2,-1.2590577E-2,2.0008291E-1,-4.1065577E-1,-2.9994813E-1,1.4868057E-1,3.1601462E-1,4.1503195E-2,2.4180827E-1,-3.295204E-1,2.229971E-1,-2.618247E-1,-1.11019425E-1,3.4799132E-1,2.1120016E-1,-2.927692E-1,7.7480197E-1,-3.8853502E-1,-2.9514754E-1,3.4069455E-1,-1.2249816E-1,-5.144216E-1,1.5872416E-1,-1.00406505E-1,5.525727E-1,-9.399439E-2,4.4813135E-1,5.812046E-1,4.463806E-1,3.0570874E-2,-4.5870605E-1,-5.7338573E-2,-3.1537583E-1,3.0190566E-1,8.015453E-2,-3.3536115E-1,-9.917644E-3],"categories":[],"categories_nodes":[],"categories_segments":[],"categories_sizes":[],"default_left":[0,0,0,0,0,0,0,0,0,0,0,0,0,0,0,0,0,0,0,0,0,0,0,0,0,0,0,0,0,0,0,0,0,0,0,0,0,0,0,0,0,0,0,0,0,0,0,0,0,0,0,0,0,0,0,0,0,0,0,0,0,0,0,0,0,0,0,0,0,0,0,0,0,0,0,0,0,0,0,0,0,0,0,0,0,0,0,0,0,0,0,0,0,0,0,0,0,0,0,0,0,0,0,0,0,0,0,0,0,0,0,0,0,0,0],"id":3,"left_children":[1,3,5,7,9,11,13,15,17,19,21,23,25,27,29,31,33,35,37,39,-1,41,43,45,47,49,51,53,55,57,59,61,63,65,67,69,71,-1,73,75,77,79,81,83,85,87,89,-1,91,93,95,97,99,101,103,-1,105,107,109,111,113,-1,-1,-1,-1,-1,-1,-1,-1,-1,-1,-1,-1,-1,-1,-1,-1,-1,-1,-1,-1,-1,-1,-1,-1,-1,-1,-1,-1,-1,-1,-1,-1,-1,-1,-1,-1,-1,-1,-1,-1,-1,-1,-1,-1,-1,-1,-1,-1,-1,-1,-1,-1,-1,-1],"loss_changes":[1.8967596E3,1.583437E3,1.4147133E3,3.6452216E2,9.727803E2,1.4361705E3,2.9855105E3,1.622693E2,1.6066565E2,5.2671533E2,9.354934E2,1.4573632E3,3.7898682E2,6.496384E2,1.255188E3,3.504619E2,1.1643742E2,2.1893054E2,7.0644806E1,4.401443E2,0E0,1.3890258E3,2.7148108E2,5.287856E2,6.598486E1,9.703052E1,1.4015424E3,5.1547516E2,9.74707E0,5.730781E2,2.0911506E3,1.8909714E2,1.4773083E2,4.9052082E1,1.6995605E1,1.0153516E2,2.397339E2,0E0,1.9579056E1,1.4129855E2,2.8601428E2,8.348433E2,2.6401367E1,4.414502E1,3.7774774E2,1.4297329E3,9.011621E1,0E0,5.6731262E1,1.4191844E2,6.357666E1,2.1014386E2,6.940662E1,3.6804114E2,8.0775903E2,0E0,2.1118164E0,8.229275E2,6.8524713E2,8.7664453E2,1.6045214E3,0E0,0E0,0E0,0E0,0E0,0E0,0E0,0E0,0E0,0E0,0E0,0E0,0E0,0E0,0E0,0E0,0E0,0E0,0E0,0E0,0E0,0E0,0E0,0E0,0E0,0E0,0E0,0E0,0E0,0E0,0E0,0E0,0E0,0E0,0E0,0E0,0E0,0E0,0E0,0E0,0E0,0E0,0E0,0E0,0E0,0E0,0E0,0E0,0E0,0E0,0E0,0E0,0E0,0E0],"parents":[2147483647,0,0,1,1,2,2,3,3,4,4,5,5,6,6,7,7,8,8,9,9,10,10,11,11,12,12,13,13,14,14,15,15,16,16,17,17,18,18,19,19,21,21,22,22,23,23,24,24,25,25,26,26,27,27,28,28,29,29,30,30,31,31,32,32,33,33,34,34,35,35,36,36,38,38,39,39,40,40,41,41,42,42,43,43,44,44,45,45,46,46,48,48,49,49,50,50,51,51,52,52,53,53,54,54,56,56,57,57,58,58,59,59,60,60],"right_children":[2,4,6,8,10,12,14,16,18,20,22,24,26,28,30,32,34,36,38,40,-1,42,44,46,48,50,52,54,56,58,60,62,64,66,68,70,72,-1,74,76,78,80,82,84,86,88,90,-1,92,94,96,98,100,102,104,-1,106,108,110,112,114,-1,-1,-1,-1,-1,-1,-1,-1,-1,-1,-1,-1,-1,-1,-1,-1,-1,-1,-1,-1,-1,-1,-1,-1,-1,-1,-1,-1,-1,-1,-1,-1,-1,-1,-1,-1,-1,-1,-1,-1,-1,-1,-1,-1,-1,-1,-1,-1,-1,-1,-1,-1,-1,-1],"split_conditions":[8.14E2,2.49E2,1.215E3,2.9E1,3.4E2,1.006E3,1.235E3,2.14292E5,1.92E2,3.39E2,7.63E2,9.93E2,1.178E3,1.233E3,2.066E3,1.6831E4,1.2E1,1.69E2,2.11E2,1.50507E5,3.6910242E-1,7.19E2,7.75E2,8.55E2,6.45E2,1.605E3,1.197E3,2.4099E4,6.45E2,1.305E3,2.199E3,6.675E3,2.9124E4,7.2991E4,7.1511E4,1.18E2,3.573E3,-3.6801463E-1,2.46E2,2.79E2,4.5838E4,5.8018E4,7.38E2,1.5282E4,7.98E2,8.35E2,9.77E2,-6.096273E-1,1.84415E5,1.357E3,1.048E3,4.5664E4,6.4042E4,1.0634E4,7.2181E4,4.59542E-1,7.037E4,1.242E3,2.016E3,1.3924E4,2.306E3,1.6448857E-1,-4.071372E-1,2.7991354E-1,7.6092005E-1,3.4934603E-2,4.0250954E-1,-2.2667517E-1,8.084662E-2,-1.0174226E-1,-2.5716338E-1,-1.0887263E0,9.410883E-2,-1.4980476E-1,-3.6216807E-1,-4.116936E-1,-1.8828055E-2,2.725829E-1,4.609414E-2,-1.2590577E-2,2.0008291E-1,-4.1065577E-1,-2.9994813E-1,1.4868057E-1,3.1601462E-1,4.1503195E-2,2.4180827E-1,-3.295204E-1,2.229971E-1,-2.618247E-1,-1.11019425E-1,3.4799132E-1,2.1120016E-1,-2.927692E-1,7.7480197E-1,-3.8853502E-1,-2.9514754E-1,3.4069455E-1,-1.2249816E-1,-5.144216E-1,1.5872416E-1,-1.00406505E-1,5.525727E-1,-9.399439E-2,4.4813135E-1,5.812046E-1,4.463806E-1,3.0570874E-2,-4.5870605E-1,-5.7338573E-2,-3.1537583E-1,3.0190566E-1,8.015453E-2,-3.3536115E-1,-9.917644E-3],"split_indices":[16,16,16,16,16,16,16,14,16,16,16,16,16,16,16,0,16,16,16,14,0,16,16,16,0,0,16,0,0,16,16,0,0,0,0,16,0,0,16,16,0,0,16,0,16,16,16,0,14,0,16,0,0,0,0,0,0,16,16,0,16,0,0,0,0,0,0,0,0,0,0,0,0,0,0,0,0,0,0,0,0,0,0,0,0,0,0,0,0,0,0,0,0,0,0,0,0,0,0,0,0,0,0,0,0,0,0,0,0,0,0,0,0,0,0],"split_type":[0,0,0,0,0,0,0,0,0,0,0,0,0,0,0,0,0,0,0,0,0,0,0,0,0,0,0,0,0,0,0,0,0,0,0,0,0,0,0,0,0,0,0,0,0,0,0,0,0,0,0,0,0,0,0,0,0,0,0,0,0,0,0,0,0,0,0,0,0,0,0,0,0,0,0,0,0,0,0,0,0,0,0,0,0,0,0,0,0,0,0,0,0,0,0,0,0,0,0,0,0,0,0,0,0,0,0,0,0,0,0,0,0,0,0],"sum_hessian":[1.2144025E5,2.2159047E4,9.92812E4,4.484427E3,1.767462E4,8.647288E3,9.0633914E4,9.1716394E2,3.567263E3,4.6152524E3,1.3059367E4,4.780875E3,3.8664136E3,2.3893655E3,8.824455E4,5.225227E2,3.9464124E2,2.8692712E3,6.979917E2,2.8805283E3,1.734724E3,8.286845E3,4.772523E3,3.665803E3,1.1150719E3,2.917876E3,9.4853754E2,1.6588507E3,7.3051483E2,1.3322536E4,7.492201E4,2.0727585E2,3.152469E2,1.767141E2,2.1792712E2,2.2382856E3,6.309856E2,2.8115704E2,4.1683466E2,4.1741046E2,2.463118E3,7.4196504E3,8.6719415E2,1.3795255E3,3.3929973E3,1.7595919E3,1.9062109E3,6.606174E0,1.1084658E3,4.596246E1,2.8719136E3,5.0533014E2,4.432074E2,5.7884766E2,1.0800032E3,1.0164508E2,6.2886975E2,1.3507023E3,1.1971834E4,7.314951E3,6.760706E4,1.10140236E2,9.713561E1,2.3956587E2,7.5681015E1,1.344534E2,4.22607E1,2.008334E2,1.709372E1,1.7559448E3,4.823408E2,1.4819747E1,6.1616583E2,3.733841E2,4.345057E1,1.11868355E2,3.055421E2,1.7608105E3,7.0230743E2,4.910171E3,2.5094792E3,3.236324E2,5.4356177E2,1.6364665E2,1.2158789E3,1.7525781E3,1.6404192E3,6.973759E2,1.0622161E3,1.4280688E3,4.7814212E2,5.774096E2,5.3105615E2,2.90729E1,1.6889559E1,1.0571261E3,1.8147875E3,3.9227466E2,1.130555E2,4.2939343E2,1.3813966E1,9.2069565E1,4.8677808E2,6.981354E2,3.8186777E2,5.997751E2,2.9094662E1,4.7916202E2,8.715402E2,1.0960992E4,1.0108423E3,2.3764219E3,4.9385293E3,1.3911094E3,6.621595E4],"tree_param":{"num_deleted":"0","num_feature":"18","num_nodes":"115","size_leaf_vector":"1"}},{"base_weights":[1.2474848E-3,7.404226E-2,-1.3326944E-1,-2.5810923E-3,3.9582962E-1,-1.2226195E0,-7.3842175E-2,4.6350643E-2,-8.3813906E-1,3.132106E-1,1.1534854E0,-1.2845583E0,-8.5122263E-1,9.663901E-1,-1.2699667E-1,9.530102E-3,9.4890666E-1,-1.059909E0,-3.3657204E-2,4.7555193E-1,-5.0837976E-1,-3.150643E-1,1.1576532E0,-1.0422876E0,-4.3553776E-1,-1.2187738E0,-7.736009E-1,1.3768973E0,6.395085E-1,-8.7471074E-1,-8.682708E-3,5.1447295E-2,-1.2787305E0,1.1378362E0,3.513681E-1,-5.792761E-1,-9.260304E-1,-6.171236E-1,8.716838E-1,-1.6315575E0,4.91812E-1,-4.694974E-1,-2.3038968E-1,1.737278E-1,-7.328852E-1,1.3601888E0,1.1297892E0,-4.6148723E-1,-5.490565E-1,-1.8263058E-1,-1.3656356E0,1.5967909E-1,-8.94397E-1,-5.3974533E-1,1.443501E0,-3.7245104E-1,1.0738323E0,-1.171932E0,-5.803636E-1,5.862982E-1,-1.3200112E-1,6.365267E-2,-1.2764172E-2,-4.8112705E-1,-1.5952331E-1,2.263723E-1,4.6330932E-1,3.8946465E-1,-5.081619E-3,-1.1522831E-1,-3.4510815E-1,1.2599283E-2,-3.906663E-1,1.5155505E-1,4.873078E-1,-1.8978742E-1,-5.799506E-1,1.5336919E-1,-3.520181E-1,1.6384725E-1,-1.6049896E-1,-1.1663133E-2,-3.0316898E-1,5.8531202E-2,4.2047843E-1,2.2043501E-1,3.4419668E-1,9.413826E-2,-2.1766675E-1,-2.940789E-1,5.3822464E-1,-3.0816764E-1,-4.3994224E-1,-3.5321057E-1,1.0139945E-1,-3.3694652E-1,-2.3481695E-1,6.076217E-1,4.0210915E-1,2.7455E-1,-4.958875E-1,2.945958E-1,5.864821E-1,-2.642263E-1,-4.1225064E-1,4.8360553E-2,-3.1150007E-1,2.5751976E-2,5.8938104E-1,-3.7637487E-1,-3.52291E-3],"categories":[],"categories_nodes":[],"categories_segments":[],"categories_sizes":[],"default_left":[0,0,0,0,0,0,0,0,0,0,0,0,0,0,0,0,0,0,0,0,0,0,0,0,0,0,0,0,0,0,0,0,0,0,0,0,0,0,0,0,0,0,0,0,0,0,0,0,0,0,0,0,0,0,0,0,0,0,0,0,0,0,0,0,0,0,0,0,0,0,0,0,0,0,0,0,0,0,0,0,0,0,0,0,0,0,0,0,0,0,0,0,0,0,0,0,0,0,0,0,0,0,0,0,0,0,0,0,0,0,0],"id":4,"left_children":[1,3,5,7,9,11,13,15,17,19,21,23,25,27,29,31,33,35,37,39,41,43,45,47,-1,49,51,53,55,57,59,61,63,65,67,-1,69,71,73,75,77,-1,79,-1,81,83,85,-1,87,89,91,93,95,-1,97,99,101,103,105,107,109,-1,-1,-1,-1,-1,-1,-1,-1,-1,-1,-1,-1,-1,-1,-1,-1,-1,-1,-1,-1,-1,-1,-1,-1,-1,-1,-1,-1,-1,-1,-1,-1,-1,-1,-1,-1,-1,-1,-1,-1,-1,-1,-1,-1,-1,-1,-1,-1,-1,-1],"loss_changes":[1.1570416E3,1.8904065E3,2.6858818E3,2.5318828E3,9.226504E2,4.8279297E1,2.1756367E3,1.9441195E3,6.11178E2,1.773758E3,9.236206E0,7.2936035E1,7.894104E0,2.5580139E2,3.3115315E3,3.035346E3,2.5846606E2,3.113723E2,3.9215036E2,3.8122827E2,6.4418726E2,2.2505238E0,6.6210938E0,1.83607E2,0E0,7.704483E0,2.9282074E1,1.8178894E2,4.6926306E2,4.467256E2,2.3714866E3,8.224399E2,4.292041E2,2.7020923E2,1.9262224E2,0E0,2.8278223E2,2.0389182E2,7.944086E1,2.4464554E1,3.569187E2,0E0,4.1151263E2,0E0,6.8774676E-1,7.923645E0,7.9987793E0,0E0,5.803653E1,1.3809804E1,5.0590515E-2,7.6624413E0,4.971054E0,0E0,4.7113647E1,5.30937E2,5.8505676E1,1.4857397E2,8.7345557E2,3.8274229E3,3.6142385E3,0E0,0E0,0E0,0E0,0E0,0E0,0E0,0E0,0E0,0E0,0E0,0E0,0E0,0E0,0E0,0E0,0E0,0E0,0E0,0E0,0E0,0E0,0E0,0E0,0E0,0E0,0E0,0E0,0E0,0E0,0E0,0E0,0E0,0E0,0E0,0E0,0E0,0E0,0E0,0E0,0E0,0E0,0E0,0E0,0E0,0E0,0E0,0E0,0E0,0E0],"parents":[2147483647,0,0,1,1,2,2,3,3,4,4,5,5,6,6,7,7,8,8,9,9,10,10,11,11,12,12,13,13,14,14,15,15,16,16,17,17,18,18,19,19,20,20,21,21,22,22,23,23,25,25,26,26,27,27,28,28,29,29,30,30,31,31,32,32,33,33,34,34,36,36,37,37,38,38,39,39,40,40,42,42,44,44,45,45,46,46,48,48,49,49,50,50,51,51,52,52,54,54,55,55,56,56,57,57,58,58,59,59,60,60],"right_children":[2,4,6,8,10,12,14,16,18,20,22,24,26,28,30,32,34,36,38,40,42,44,46,48,-1,50,52,54,56,58,60,62,64,66,68,-1,70,72,74,76,78,-1,80,-1,82,84,86,-1,88,90,92,94,96,-1,98,100,102,104,106,108,110,-1,-1,-1,-1,-1,-1,-1,-1,-1,-1,-1,-1,-1,-1,-1,-1,-1,-1,-1,-1,-1,-1,-1,-1,-1,-1,-1,-1,-1,-1,-1,-1,-1,-1,-1,-1,-1,-1,-1,-1,-1,-1,-1,-1,-1,-1,-1,-1,-1,-1],"split_conditions":[3.141E3,2.809E3,3.304E3,2.565E3,3.128E3,3.276E3,3.325E3,2.518E3,5.9222E4,3.037E3,3.64E2,3.168E3,8.967E3,2.16258E5,3.632E3,2.43E3,3.66471E5,2.615E3,2.772E3,9.28E2,3.083E3,6.99E2,9.423E3,3.155E3,-4.3553776E-1,2.045E3,2.0804E4,5.339E3,4.1996E4,3.474E3,3.728E3,8.03E2,2.506E3,2.10273E5,2.53E3,-5.792761E-1,2.681E3,2.681E3,7.0072E4,2.901E3,7.2607E4,-4.694974E-1,3.09E3,1.737278E-1,7.686E3,5.477E3,9.8298E4,-4.6148723E-1,1.1259E4,1.605E3,3.139E3,1.699E3,3.418E4,-5.3974533E-1,8.535E3,3.5893E4,7.2991E4,3.361E3,3.518E3,3.724E3,3.898E3,6.365267E-2,-1.2764172E-2,-4.8112705E-1,-1.5952331E-1,2.263723E-1,4.6330932E-1,3.8946465E-1,-5.081619E-3,-1.1522831E-1,-3.4510815E-1,1.2599283E-2,-3.906663E-1,1.5155505E-1,4.873078E-1,-1.8978742E-1,-5.799506E-1,1.5336919E-1,-3.520181E-1,1.6384725E-1,-1.6049896E-1,-1.1663133E-2,-3.0316898E-1,5.8531202E-2,4.2047843E-1,2.2043501E-1,3.4419668E-1,9.413826E-2,-2.1766675E-1,-2.940789E-1,5.3822464E-1,-3.0816764E-1,-4.3994224E-1,-3.5321057E-1,1.0139945E-1,-3.3694652E-1,-2.3481695E-1,6.076217E-1,4.0210915E-1,2.7455E-1,-4.958875E-1,2.945958E-1,5.864821E-1,-2.642263E-1,-4.1225064E-1,4.8360553E-2,-3.1150007E-1,2.5751976E-2,5.8938104E-1,-3.7637487E-1,-3.52291E-3],"split_indices":[16,16,16,16,16,16,16,16,0,16,0,16,0,14,16,16,14,16,16,0,16,4,0,16,0,0,0,0,0,16,16,16,16,14,16,0,16,16,0,16,0,0,16,0,2,2,14,0,0,0,0,3,0,0,0,0,0,16,16,16,16,0,0,0,0,0,0,0,0,0,0,0,0,0,0,0,0,0,0,0,0,0,0,0,0,0,0,0,0,0,0,0,0,0,0,0,0,0,0,0,0,0,0,0,0,0,0,0,0,0,0],"split_type":[0,0,0,0,0,0,0,0,0,0,0,0,0,0,0,0,0,0,0,0,0,0,0,0,0,0,0,0,0,0,0,0,0,0,0,0,0,0,0,0,0,0,0,0,0,0,0,0,0,0,0,0,0,0,0,0,0,0,0,0,0,0,0,0,0,0,0,0,0,0,0,0,0,0,0,0,0,0,0,0,0,0,0,0,0,0,0,0,0,0,0,0,0,0,0,0,0,0,0,0,0,0,0,0,0,0,0,0,0,0,0],"sum_hessian":[1.1815835E5,7.666889E4,4.1489457E4,6.1924535E4,1.47443545E4,2.145274E3,3.9344184E4,5.849964E4,3.4248967E3,1.3295908E4,1.4484465E3,1.8365321E3,3.087419E2,1.9118641E3,3.743232E4,5.6207613E4,2.2920269E3,2.684538E3,7.403587E2,1.1102534E4,2.1933733E3,3.8879225E0,1.4445586E3,7.5295886E2,1.0835732E3,5.1269844E1,2.5747208E2,8.4609784E2,1.0657662E3,5.1130093E3,3.231931E4,5.44373E4,1.7703112E3,1.740737E3,5.5128986E2,3.55865E2,2.3286729E3,4.5040433E2,2.8995438E2,8.425876E1,1.1018275E4,4.5590308E2,1.7374703E3,1.1152502E0,2.7726722E0,1.689186E2,1.27564E3,3.74368E2,3.7859085E2,6.6433115E0,4.4626534E1,2.9469172E1,2.280029E2,1.6844427E1,8.292534E2,3.20096E2,7.456702E2,2.5426008E3,2.5704084E3,5.5479697E3,2.6771342E4,2.008729E4,3.435001E4,1.2327667E3,5.375445E2,8.974786E2,8.432584E2,1.5368077E2,3.9760907E2,6.825303E2,1.6461427E3,2.3003246E2,2.2037187E2,1.9612595E2,9.382844E1,2.0258919E1,6.3999836E1,1.0891953E4,1.26322136E2,4.8929547E2,1.2481748E3,1.1181237E0,1.6545485E0,5.993193E0,1.629254E2,5.6038593E1,1.2196013E3,6.415908E1,3.1443176E2,5.0925055E0,1.5508059E0,1.2813095E1,3.1813437E1,2.8084726E0,2.66607E1,7.182196E1,1.5618094E2,1.2204315E2,7.0721027E2,1.5974715E2,1.6034888E2,6.771943E2,6.847595E1,1.0443359E3,1.498265E3,9.8160236E2,1.5888062E3,4.0709006E3,1.4770691E3,2.5895017E3,2.418184E4],"tree_param":{"num_deleted":"0","num_feature":"18","num_nodes":"111","size_leaf_vector":"1"}},{"base_weights":[-1.8044373E-4,3.500041E-2,-2.571152E-1,8.893074E-3,6.3780534E-1,-1.6809491E0,4.9282223E-2,3.5608243E-2,-1.680898E0,1.8208799E0,2.28066E-1,-1.2912658E0,-1.8762223E0,1.688822E0,-6.883538E-2,1.3105702E-3,1.366352E0,-5.94212E-1,-1.5337883E0,-5.5210406E-1,1.8659545E0,-2.9899368E-1,1.1099751E0,-1.7812734E0,-7.479557E-1,-1.9360763E0,-1.6570832E0,1.6922218E0,4.4508117E-1,-1.2769208E0,3.8028095E-2,1.4027671E-2,-1.4716253E0,1.202293E0,5.940349E-1,-1.1013635E0,-1.8621968E0,1.7509358E0,5.762563E-1,3.9651275E-1,-1.0507276E0,1.215867E0,5.5429775E-1,3.4151506E-1,-1.7926322E0,2.7195513E-1,-1.0893245E0,-1.406964E0,-5.8266807E-1,-1.701359E0,3.97889E-1,1.483092E-1,1.6933037E0,-1.15203284E-1,3.1147188E-1,-1.4337053E0,8.3000934E-1,9.808589E-1,-2.6852253E-1,5.8130315E-4,2.7238548E-1,2.0124532E-1,-4.4573388E-1,3.079088E-1,4.328298E-1,-3.5162514E-1,3.8013828E-1,-5.3587E-1,-5.927447E-1,5.412098E-1,-7.606166E-2,1.5295981E-1,-1.31068E-1,-4.889829E-1,-2.764523E-1,-4.161705E-1,3.7165254E-1,-3.7345394E-1,3.3018073E-1,-5.442812E-1,-5.339206E-2,-7.956632E-2,4.5553106E-1,-5.8687204E-1,-2.4553765E-1,-5.275789E-1,3.011249E-1,-5.860172E-1,-4.7047138E-1,5.083167E-1,1.483092E-1,-5.5147696E-1,-3.4152192E-1,1.7116444E-2,3.49552E-1,4.0931705E-1,1.60422E-1,-2.2632869E-1,-4.1621722E-2],"categories":[],"categories_nodes":[],"categories_segments":[],"categories_sizes":[],"default_left":[0,0,0,0,0,0,0,0,0,0,0,0,0,0,0,0,0,0,0,0,0,0,0,0,0,0,0,0,0,0,0,0,0,0,0,0,0,0,0,0,0,0,0,0,0,0,0,0,0,0,0,0,0,0,0,0,0,0,0,0,0,0,0,0,0,0,0,0,0,0,0,0,0,0,0,0,0,0,0,0,0,0,0,0,0,0,0,0,0,0,0,0,0,0,0,0,0,0,0],"id":5,"left_children":[1,3,5,7,9,11,13,15,17,19,21,23,25,27,29,31,33,-1,35,-1,37,39,41,43,45,47,49,51,53,55,57,59,61,63,-1,65,67,69,-1,71,73,75,77,-1,79,81,83,85,-1,87,-1,-1,89,-1,-1,91,93,95,97,-1,-1,-1,-1,-1,-1,-1,-1,-1,-1,-1,-1,-1,-1,-1,-1,-1,-1,-1,-1,-1,-1,-1,-1,-1,-1,-1,-1,-1,-1,-1,-1,-1,-1,-1,-1,-1,-1,-1,-1],"loss_changes":[1.0483142E3,1.6053442E3,6.0934644E3,4.4138594E3,2.0522646E3,1.857915E2,2.2262048E3,4.393115E3,6.407764E1,1.8317407E2,1.462812E3,2.1934277E2,1.8375E1,2.5131836E0,1.3844417E3,1.7576971E3,2.4113916E2,0E0,1.4354956E2,0E0,3.4335938E0,1.0304891E3,6.859326E1,1.6470459E1,1.3775041E2,1.4545898E0,4.980487E1,1.6088867E-1,2.1016173E0,2.8907605E2,2.8480017E3,1.00545795E3,2.5354248E1,7.936182E1,0E0,7.602228E1,1.4874268E0,3.867505E1,0E0,9.696689E1,6.938367E1,6.0802002E1,1.8837251E2,0E0,1.483374E1,6.722898E1,6.7903046E1,1.7372849E1,0E0,8.851807E0,0E0,0E0,1.6259766E-1,0E0,0E0,9.485266E1,1.573484E1,4.1294727E2,4.6883893E2,0E0,0E0,0E0,0E0,0E0,0E0,0E0,0E0,0E0,0E0,0E0,0E0,0E0,0E0,0E0,0E0,0E0,0E0,0E0,0E0,0E0,0E0,0E0,0E0,0E0,0E0,0E0,0E0,0E0,0E0,0E0,0E0,0E0,0E0,0E0,0E0,0E0,0E0,0E0,0E0],"parents":[2147483647,0,0,1,1,2,2,3,3,4,4,5,5,6,6,7,7,8,8,9,9,10,10,11,11,12,12,13,13,14,14,15,15,16,16,18,18,20,20,21,21,22,22,23,23,24,24,25,25,26,26,27,27,28,28,29,29,30,30,31,31,32,32,33,33,35,35,36,36,37,37,39,39,40,40,41,41,42,42,44,44,45,45,46,46,47,47,49,49,52,52,55,55,56,56,57,57,58,58],"right_children":[2,4,6,8,10,12,14,16,18,20,22,24,26,28,30,32,34,-1,36,-1,38,40,42,44,46,48,50,52,54,56,58,60,62,64,-1,66,68,70,-1,72,74,76,78,-1,80,82,84,86,-1,88,-1,-1,90,-1,-1,92,94,96,98,-1,-1,-1,-1,-1,-1,-1,-1,-1,-1,-1,-1,-1,-1,-1,-1,-1,-1,-1,-1,-1,-1,-1,-1,-1,-1,-1,-1,-1,-1,-1,-1,-1,-1,-1,-1,-1,-1,-1,-1],"split_conditions":[4.253E3,4.127E3,4.499E3,4.047E3,4.137E3,4.286E3,4.505E3,4.019E3,4.071E3,4.447E3,4.224E3,4.272E3,4.444E3,7.3638E4,4.552E3,3.921E3,4.044E3,-5.94212E-1,4.099E3,-5.5210406E-1,2.6796E4,4.17E3,5.7708E4,6.45E2,1.2483E4,1.964E3,7.3363E4,2.22E2,2.19E3,4.94917E5,4.58E3,3.898E3,1.357E3,4.038E3,5.940349E-1,7.3214E4,4.126E3,2.1764E4,5.762563E-1,6.9165E4,2.4966E4,1.605E3,6.2784E4,3.4151506E-1,7.0072E4,1.1556E4,3.5893E4,1.84E3,-5.8266807E-1,2.803E4,3.97889E-1,1.483092E-1,2.86E3,-1.15203284E-1,3.1147188E-1,4.539E3,4.539E3,4.562E3,4.657E3,5.8130315E-4,2.7238548E-1,2.0124532E-1,-4.4573388E-1,3.079088E-1,4.328298E-1,-3.5162514E-1,3.8013828E-1,-5.3587E-1,-5.927447E-1,5.412098E-1,-7.606166E-2,1.5295981E-1,-1.31068E-1,-4.889829E-1,-2.764523E-1,-4.161705E-1,3.7165254E-1,-3.7345394E-1,3.3018073E-1,-5.442812E-1,-5.339206E-2,-7.956632E-2,4.5553106E-1,-5.8687204E-1,-2.4553765E-1,-5.275789E-1,3.011249E-1,-5.860172E-1,-4.7047138E-1,5.083167E-1,1.483092E-1,-5.5147696E-1,-3.4152192E-1,1.7116444E-2,3.49552E-1,4.0931705E-1,1.60422E-1,-2.2632869E-1,-4.1621722E-2],"split_indices":[16,16,16,16,16,16,16,16,16,0,16,16,16,0,16,16,16,0,16,0,0,16,0,0,0,2,0,10,3,14,16,16,0,16,0,0,16,0,0,0,2,0,0,0,0,0,0,2,0,0,0,0,8,0,0,16,16,16,16,0,0,0,0,0,0,0,0,0,0,0,0,0,0,0,0,0,0,0,0,0,0,0,0,0,0,0,0,0,0,0,0,0,0,0,0,0,0,0,0],"split_type":[0,0,0,0,0,0,0,0,0,0,0,0,0,0,0,0,0,0,0,0,0,0,0,0,0,0,0,0,0,0,0,0,0,0,0,0,0,0,0,0,0,0,0,0,0,0,0,0,0,0,0,0,0,0,0,0,0,0,0,0,0,0,0,0,0,0,0,0,0,0,0,0,0,0,0,0,0,0,0,0,0,0,0,0,0,0,0,0,0,0,0,0,0,0,0,0,0,0,0],"sum_hessian":[1.1597245E5,1.020061E5,1.3966348E4,9.777261E4,4.2334937E3,2.4724312E3,1.1493917E4,9.6251875E4,1.5207388E3,1.0881482E3,3.1453452E3,8.279009E2,1.6445304E3,7.7151733E2,1.0722399E4,9.383445E4,2.4174233E3,4.964705E2,1.0242683E3,1.2749243E1,1.0753989E3,1.9691647E3,1.1761807E3,4.3410562E2,3.9379523E2,1.2855656E3,3.5896478E2,7.6905457E2,2.462751E0,8.704998E2,9.851899E3,9.303221E4,8.022353E2,1.9098739E3,5.0754953E2,4.4399768E2,5.802706E2,3.5808325E2,7.173157E2,1.02308026E3,9.4608435E2,9.8692114E2,1.892595E2,1.2978086E0,4.3280783E2,9.8803215E1,2.94992E2,1.7412107E1,1.2681534E3,3.541388E2,4.8259993E0,1.1072706E0,7.679473E2,1.1741595E0,1.2885914E0,8.1050653E2,5.999328E1,2.4167412E3,7.435158E3,9.1791766E4,1.240448E3,4.960734E0,7.9727454E2,1.1059943E3,8.038796E2,4.3161533E2,1.238235E1,3.5778387E2,2.2248677E2,3.4894012E2,9.143114E0,9.0093097E2,1.22149254E2,1.7044925E2,7.7563513E2,8.114775E0,9.788064E2,4.3784714E1,1.454748E2,4.269624E2,5.845424E0,6.959724E1,2.920598E1,6.874592E1,2.262461E2,1.5431711E1,1.9803966E0,1.1767564E2,2.3646315E2,7.6684E2,1.1072706E0,3.3978528E2,4.7072125E2,1.8499651E1,4.1493626E1,1.2984218E3,1.1183195E3,1.5662692E3,5.868889E3],"tree_param":{"num_deleted":"0","num_feature":"18","num_nodes":"99","size_leaf_vector":"1"}},{"base_weights":[6.0975504E-5,1.48776295E-2,-4.8178113E-1,-2.7564906E-3,3.1313062E-1,-9.5294607E-1,-2.453818E-1,2.4644645E-2,-7.2555435E-1,1.0974205E0,1.3465397E-1,-1.0992447E0,-6.77438E-1,4.686136E-1,-5.98442E-1,6.1434996E-3,4.657786E-1,-1.2815976E0,9.754681E-2,7.19921E-1,1.2260524E0,-1.4824964E-1,4.5391363E-1,-1.1616281E0,2.3099516E-1,-5.6228215E-1,-1.3484149E0,5.1362747E-1,-1.0778004E0,3.9163344E-2,-1.0548127E0,2.5088295E-2,-1.2772036E0,1.3867711E0,1.6303985E-1,-9.6359074E-1,-1.4458425E0,1.3374652E0,-9.0629315E-1,9.1978663E-1,-1.0330846E0,-6.096192E-1,1.2349191E0,2.5560364E-1,-1.6835655E0,1.3785125E0,-2.107348E-1,-1.1681527E0,4.479332E-1,9.3734455E-1,-1.2397305E0,-9.386895E-1,-2.761295E-1,-6.1258864E-1,-4.1221157E-1,3.5441813E-1,1.1721325E0,-1.3034264E0,2.8114876E-1,-8.0444914E-1,1.7560755E0,-1.2317355E0,-8.710653E-1,2.6066217E-4,3.0108225E-1,-2.5686255E-1,-4.1131815E-1,-4.3328416E-1,4.264681E-1,-6.4417735E-2,2.4137643E-1,-4.0822315E-1,-1.6305438E-1,-4.4964546E-1,-3.7677762E-1,4.0207735E-1,1.1304816E-1,-3.0530474E-1,1.824473E-1,-7.5738883E-1,2.9314095E-1,-8.9975864E-1,2.1643946E-1,-2.9889977E-1,3.7178233E-1,3.4866378E-2,2.7559063E-1,-1.537644E-1,-5.2716845E-1,2.0378391E-1,4.3739262E-1,-1.3956483E-1,1.1448919E-1,-3.5707016E-2,-3.5166422E-1,-4.3335535E-2,2.8579333E-1,-1.3105586E-1,-3.921152E-1,-6.2232208E-2,-3.551893E-1,6.755481E-1,-1.0043235E-1,-2.7823374E-1,3.4522485E-2,1.8879843E-1,-2.2595928E-3,-1.4318277E-1,3.6688322E-1,-4.1582346E-1,3.4522485E-2,-1.9687581E-1,-3.767284E-1,9.1290617E-1,-1.173018E-1,5.585274E-2,-3.715948E-1,1.8590838E-1,-2.7552477E-1],"categories":[],"categories_nodes":[],"categories_segments":[],"categories_sizes":[],"default_left":[0,0,0,0,0,0,0,0,0,0,0,0,0,0,0,0,0,0,0,0,0,0,0,0,0,0,0,0,0,0,0,0,0,0,0,0,0,0,0,0,0,0,0,0,0,0,0,0,0,0,0,0,0,0,0,0,0,0,0,0,0,0,0,0,0,0,0,0,0,0,0,0,0,0,0,0,0,0,0,0,0,0,0,0,0,0,0,0,0,0,0,0,0,0,0,0,0,0,0,0,0,0,0,0,0,0,0,0,0,0,0,0,0,0,0,0,0,0,0],"id":6,"left_children":[1,3,5,7,9,11,13,15,17,19,21,23,25,27,29,31,33,35,37,39,41,43,45,47,49,51,53,55,57,59,61,63,65,67,69,71,73,75,77,79,81,-1,83,85,87,89,91,93,95,-1,97,99,101,103,-1,105,107,109,-1,111,113,115,117,-1,-1,-1,-1,-1,-1,-1,-1,-1,-1,-1,-1,-1,-1,-1,-1,-1,-1,-1,-1,-1,-1,-1,-1,-1,-1,-1,-1,-1,-1,-1,-1,-1,-1,-1,-1,-1,-1,-1,-1,-1,-1,-1,-1,-1,-1,-1,-1,-1,-1,-1,-1,-1,-1,-1,-1],"loss_changes":[8.218714E2,5.874013E2,3.8229163E2,2.088535E3,8.7257465E2,4.5489624E1,5.771107E2,8.292103E2,1.7629542E3,5.523401E1,4.5889935E2,6.2309082E1,3.018364E1,5.329593E1,4.457041E2,2.3708218E3,1.1400374E3,1.1867627E2,1.9352488E3,1.04703094E2,2.7368774E1,1.6709203E3,1.4671401E3,8.024536E0,1.4994028E2,3.6740143E1,2.508011E-1,7.684424E1,1.1111481E1,9.282266E2,2.794751E1,2.2773625E3,5.4877686E1,1.0168518E2,7.463858E2,1.3038043E2,1.3349121E1,1.3608398E0,1.4557086E2,5.5080704E1,1.0833684E2,0E0,9.580322E0,1.971008E2,4.7510254E1,5.4483154E1,2.0964609E2,2.8929443E0,1.2159297E0,0E0,6.9771576E-1,2.6288666E1,2.9895432E1,9.668989E-1,0E0,5.919764E1,1.2572311E1,2.5021782E0,0E0,2.7918701E1,5.8459576E2,4.665222E0,3.1720612E1,0E0,0E0,0E0,0E0,0E0,0E0,0E0,0E0,0E0,0E0,0E0,0E0,0E0,0E0,0E0,0E0,0E0,0E0,0E0,0E0,0E0,0E0,0E0,0E0,0E0,0E0,0E0,0E0,0E0,0E0,0E0,0E0,0E0,0E0,0E0,0E0,0E0,0E0,0E0,0E0,0E0,0E0,0E0,0E0,0E0,0E0,0E0,0E0,0E0,0E0,0E0,0E0,0E0,0E0,0E0,0E0],"parents":[2147483647,0,0,1,1,2,2,3,3,4,4,5,5,6,6,7,7,8,8,9,9,10,10,11,11,12,12,13,13,14,14,15,15,16,16,17,17,18,18,19,19,20,20,21,21,22,22,23,23,24,24,25,25,26,26,27,27,28,28,29,29,30,30,31,31,32,32,33,33,34,34,35,35,36,36,37,37,38,38,39,39,40,40,42,42,43,43,44,44,45,45,46,46,47,47,48,48,50,50,51,51,52,52,53,53,55,55,56,56,57,57,59,59,60,60,61,61,62,62],"right_children":[2,4,6,8,10,12,14,16,18,20,22,24,26,28,30,32,34,36,38,40,42,44,46,48,50,52,54,56,58,60,62,64,66,68,70,72,74,76,78,80,82,-1,84,86,88,90,92,94,96,-1,98,100,102,104,-1,106,108,110,-1,112,114,116,118,-1,-1,-1,-1,-1,-1,-1,-1,-1,-1,-1,-1,-1,-1,-1,-1,-1,-1,-1,-1,-1,-1,-1,-1,-1,-1,-1,-1,-1,-1,-1,-1,-1,-1,-1,-1,-1,-1,-1,-1,-1,-1,-1,-1,-1,-1,-1,-1,-1,-1,-1,-1,-1,-1,-1,-1],"split_conditions":[4.694E3,4.552E3,4.817E3,4.253E3,4.562E3,4.772E3,4.847E3,4.127E3,4.499E3,4.557E3,4.657E3,1.47042E5,6.8306E4,7.377E4,2.8592E4,4.047E3,4.137E3,4.286E3,4.505E3,6.5274E4,6.45E2,4.605E3,4.664E3,3.351E3,4.86933E5,1.78361E5,2.0741E4,4.08891E5,4.831E3,2.4748E4,4.9164E4,4.019E3,1.3924E4,4.447E3,4.224E3,4.272E3,4.444E3,7.3638E4,1.4952E5,2.317E3,6.8306E4,-6.096192E-1,5.33E2,6.794E4,7.553E3,1.5282E4,3.40252E5,6.45E2,3.6301E4,9.3734455E-1,2.7726E4,1.0379E4,2.5045E4,8.514E3,-4.1221157E-1,3.4593E4,9.84E2,7.4109E4,2.8114876E-1,4.964E3,2.5045E4,3.17E3,3.56434E5,2.6066217E-4,3.0108225E-1,-2.5686255E-1,-4.1131815E-1,-4.3328416E-1,4.264681E-1,-6.4417735E-2,2.4137643E-1,-4.0822315E-1,-1.6305438E-1,-4.4964546E-1,-3.7677762E-1,4.0207735E-1,1.1304816E-1,-3.0530474E-1,1.824473E-1,-7.5738883E-1,2.9314095E-1,-8.9975864E-1,2.1643946E-1,-2.9889977E-1,3.7178233E-1,3.4866378E-2,2.7559063E-1,-1.537644E-1,-5.2716845E-1,2.0378391E-1,4.3739262E-1,-1.3956483E-1,1.1448919E-1,-3.5707016E-2,-3.5166422E-1,-4.3335535E-2,2.8579333E-1,-1.3105586E-1,-3.921152E-1,-6.2232208E-2,-3.551893E-1,6.755481E-1,-1.0043235E-1,-2.7823374E-1,3.4522485E-2,1.8879843E-1,-2.2595928E-3,-1.4318277E-1,3.6688322E-1,-4.1582346E-1,3.4522485E-2,-1.9687581E-1,-3.767284E-1,9.1290617E-1,-1.173018E-1,5.585274E-2,-3.715948E-1,1.8590838E-1,-2.7552477E-1],"split_indices":[16,16,16,16,16,16,16,16,16,16,16,13,0,0,0,16,16,16,16,0,0,16,16,7,14,14,2,14,16,0,0,16,0,0,16,16,16,0,13,0,0,0,2,0,0,0,14,0,0,0,1,0,0,2,0,0,8,0,0,16,0,1,14,0,0,0,0,0,0,0,0,0,0,0,0,0,0,0,0,0,0,0,0,0,0,0,0,0,0,0,0,0,0,0,0,0,0,0,0,0,0,0,0,0,0,0,0,0,0,0,0,0,0,0,0,0,0,0,0],"split_type":[0,0,0,0,0,0,0,0,0,0,0,0,0,0,0,0,0,0,0,0,0,0,0,0,0,0,0,0,0,0,0,0,0,0,0,0,0,0,0,0,0,0,0,0,0,0,0,0,0,0,0,0,0,0,0,0,0,0,0,0,0,0,0,0,0,0,0,0,0,0,0,0,0,0,0,0,0,0,0,0,0,0,0,0,0,0,0,0,0,0,0,0,0,0,0,0,0,0,0,0,0,0,0,0,0,0,0,0,0,0,0,0,0,0,0,0,0,0,0],"sum_hessian":[1.1511752E5,1.116842E5,3.4333223E3,1.0545047E5,6.233737E3,1.1460706E3,2.2872517E3,1.01599805E5,3.8506643E3,1.1546492E3,5.079088E3,7.466166E2,3.9945398E2,7.5668225E2,1.5305695E3,9.75112E4,4.0886028E3,2.2978213E3,1.5528428E3,2.9512756E2,8.5952167E2,2.6931548E3,2.385933E3,7.1329254E2,3.332403E1,3.4250912E2,5.6944855E1,7.359283E2,2.0753963E1,6.388844E2,8.9168506E2,9.609364E4,1.4175559E3,1.0105932E3,3.0780098E3,7.849285E2,1.512893E3,6.9458105E2,8.582618E2,2.6534955E2,2.9778017E1,1.7134849E0,8.5780817E2,2.1329355E3,5.602192E2,9.9738586E2,1.3885472E3,7.106859E2,2.606617E0,1.0851157E1,2.2472874E1,1.469412E2,1.9556793E2,2.7544096E0,5.4190445E1,5.938815E2,1.4204684E2,1.8981619E1,1.7723451E0,4.287484E2,2.1013599E2,4.5137305E2,4.40312E2,9.377365E4,2.3199995E3,2.6026407E2,1.1572919E3,1.177605E1,9.9881714E2,1.9376941E3,1.1403156E3,4.0232178E2,3.8260672E2,1.1775374E3,3.3535553E2,6.9217377E2,2.4073343E0,7.9976624E2,5.8495518E1,3.6411555E0,2.617084E2,1.3707879E1,1.6070139E1,1.2273937E0,8.5658075E2,1.7634077E3,3.695279E2,3.3625862E1,5.265933E2,1.0275367E2,8.9463214E2,9.714327E2,4.171146E2,2.8574643E0,7.078284E2,1.5275309E0,1.0790861E0,2.3179212E0,2.0154953E1,3.737102E1,1.09570175E2,3.586133E0,1.919818E2,1.7309023E0,1.0235072E0,3.37104E2,2.5677744E2,3.9942796E0,1.3805257E2,1.795811E1,1.0235072E0,3.2461075E2,1.0413766E2,1.3112396E2,7.9012024E1,2.064407E0,4.4930865E2,1.3182853E1,4.2712915E2],"tree_param":{"num_deleted":"0","num_feature":"18","num_nodes":"119","size_leaf_vector":"1"}},{"base_weights":[-3.1473994E-4,5.178402E-2,-1.0408905E-1,-3.0305665E-3,2.8919646E-1,-1.0292523E0,-5.674098E-2,3.1759117E-2,-6.1424106E-1,2.2690305E-1,8.852793E-1,-1.0943846E0,-6.678626E-1,7.1600616E-1,-9.76978E-2,5.6987116E-3,6.7776215E-1,-8.200368E-1,-9.517102E-2,3.573985E-1,-3.407639E-1,9.7567654E-1,8.246055E-1,-8.4622717E-1,-3.8378927E-1,-1.0321912E0,-5.9668314E-1,1.0286659E0,4.6964076E-1,-6.94442E-1,-4.3818406E-3,3.5483576E-2,-9.551759E-1,8.052538E-1,2.0329742E-1,-1.5573473E0,-6.9042575E-1,-4.900314E-1,1.13710076E-1,3.0162537E-1,1.1207694E0,-7.709424E-1,-1.6690521E-1,8.9037824E-1,1.3064013E0,9.614433E-2,8.757377E-1,-4.0136927E-1,-4.1489083E-1,-1.19871706E-1,-1.1762682E0,5.2701488E-2,-7.091493E-1,-4.333092E-1,1.0783834E0,-1.4976038E-1,8.836652E-1,-9.766184E-1,-4.390298E-1,4.2273387E-1,-1.0020438E-1,-7.149003E-3,9.1407605E-2,-3.6658373E-1,-1.1352398E-1,1.102723E-1,2.9934213E-1,2.4895386E-1,-1.11960605E-1,-4.5610633E-1,-5.661306E-1,-4.0534362E-2,-3.355298E-1,9.686005E-2,-1.9514753E-1,1.3684316E-1,2.4370056E-2,3.5048828E-1,2.1813513E-1,-1.4145055E-2,-4.0566096E-1,1.1198016E-1,-1.1679202E-1,3.0747482E-1,1.878169E-1,-1.88605E-2,3.968546E-1,9.962706E-2,-3.1813163E-1,4.2124945E-1,2.5372228E-1,-4.6117932E-1,-9.678681E-2,-2.4636468E-1,4.058729E-1,-2.5544786E-1,-3.880007E-1,6.5250345E-2,-3.6079675E-1,-4.0587738E-1,-1.9148429E-1,-7.036629E-2,3.3630538E-1,-4.7827426E-1,1.9691646E-1,3.6481482E-1,9.575521E-2,-2.096557E-1,-3.550997E-1,3.314936E-2,-2.4524039E-1,1.777584E-2,4.5292035E-1,-3.51658E-1,-6.963285E-3],"categories":[],"categories_nodes":[],"categories_segments":[],"categories_sizes":[],"default_left":[0,0,0,0,0,0,0,0,0,0,0,0,0,0,0,0,0,0,0,0,0,0,0,0,0,0,0,0,0,0,0,0,0,0,0,0,0,0,0,0,0,0,0,0,0,0,0,0,0,0,0,0,0,0,0,0,0,0,0,0,0,0,0,0,0,0,0,0,0,0,0,0,0,0,0,0,0,0,0,0,0,0,0,0,0,0,0,0,0,0,0,0,0,0,0,0,0,0,0,0,0,0,0,0,0,0,0,0,0,0,0,0,0,0,0],"id":7,"left_children":[1,3,5,7,9,11,13,15,17,19,21,23,25,27,29,31,33,35,37,39,41,43,45,47,-1,49,51,53,55,57,59,61,63,65,67,69,71,-1,73,75,77,79,81,83,85,87,89,-1,91,93,95,97,99,-1,101,103,105,107,109,111,113,-1,-1,-1,-1,-1,-1,-1,-1,-1,-1,-1,-1,-1,-1,-1,-1,-1,-1,-1,-1,-1,-1,-1,-1,-1,-1,-1,-1,-1,-1,-1,-1,-1,-1,-1,-1,-1,-1,-1,-1,-1,-1,-1,-1,-1,-1,-1,-1,-1,-1,-1,-1,-1,-1],"loss_changes":[6.136976E2,9.8345825E2,1.6618767E3,1.3055508E3,5.261564E2,4.2746094E1,1.142405E3,9.779694E2,3.531316E2,9.509433E2,6.5498047E0,7.066077E1,6.765251E0,1.39466E2,1.908778E3,1.5981405E3,1.3609558E2,2.2518457E2,3.0218307E2,4.44015E2,1.793392E2,1.3874817E1,3.0041992E1,1.4164615E2,0E0,5.7936172E0,1.7600334E1,9.990204E1,2.6119382E2,3.3364526E2,1.213267E3,8.648483E2,2.5785767E2,1.4923755E2,1.73119E2,1.43927E0,4.7887555E2,0E0,1.3262727E2,3.312312E2,1.2437988E1,2.9039566E2,2.0560234E2,1.45399475E1,2.4964294E0,1.5135078E1,1.0790161E1,0E0,3.6643078E1,8.62162E0,3.7690735E-1,7.798437E0,8.491364E0,0E0,4.4185608E1,4.7696194E2,1.1411844E2,1.2578027E2,5.0645062E2,2.14612E3,1.998369E3,0E0,0E0,0E0,0E0,0E0,0E0,0E0,0E0,0E0,0E0,0E0,0E0,0E0,0E0,0E0,0E0,0E0,0E0,0E0,0E0,0E0,0E0,0E0,0E0,0E0,0E0,0E0,0E0,0E0,0E0,0E0,0E0,0E0,0E0,0E0,0E0,0E0,0E0,0E0,0E0,0E0,0E0,0E0,0E0,0E0,0E0,0E0,0E0,0E0,0E0,0E0,0E0,0E0,0E0],"parents":[2147483647,0,0,1,1,2,2,3,3,4,4,5,5,6,6,7,7,8,8,9,9,10,10,11,11,12,12,13,13,14,14,15,15,16,16,17,17,18,18,19,19,20,20,21,21,22,22,23,23,25,25,26,26,27,27,28,28,29,29,30,30,31,31,32,32,33,33,34,34,35,35,36,36,38,38,39,39,40,40,41,41,42,42,43,43,44,44,45,45,46,46,48,48,49,49,50,50,51,51,52,52,54,54,55,55,56,56,57,57,58,58,59,59,60,60],"right_children":[2,4,6,8,10,12,14,16,18,20,22,24,26,28,30,32,34,36,38,40,42,44,46,48,-1,50,52,54,56,58,60,62,64,66,68,70,72,-1,74,76,78,80,82,84,86,88,90,-1,92,94,96,98,100,-1,102,104,106,108,110,112,114,-1,-1,-1,-1,-1,-1,-1,-1,-1,-1,-1,-1,-1,-1,-1,-1,-1,-1,-1,-1,-1,-1,-1,-1,-1,-1,-1,-1,-1,-1,-1,-1,-1,-1,-1,-1,-1,-1,-1,-1,-1,-1,-1,-1,-1,-1,-1,-1,-1,-1,-1,-1,-1,-1],"split_conditions":[3.141E3,2.809E3,3.304E3,2.565E3,3.128E3,3.276E3,3.325E3,2.518E3,2.772E3,3.026E3,2.781E4,3.168E3,8.967E3,2.16258E5,3.632E3,2.43E3,3.78595E5,2.615E3,6.675E3,3.017E3,3.083E3,2.4099E4,2.22223E5,3.155E3,-3.8378927E-1,2.045E3,2.2007E4,5.339E3,4.6686E4,3.474E3,3.728E3,2.096E3,2.506E3,1.9121E4,2.54E3,5.8358E4,2.681E3,-4.900314E-1,2.797E3,2.928E3,5.8018E4,3.037E3,3.09E3,1.1236E5,8.09E2,3.0432E4,3.2632E4,-4.0136927E-1,4.134E3,1.605E3,5E1,6E2,1.66447E5,-4.333092E-1,8.959E3,3.311E3,6.3442E4,3.361E3,3.518E3,3.724E3,3.879E3,-7.149003E-3,9.1407605E-2,-3.6658373E-1,-1.1352398E-1,1.102723E-1,2.9934213E-1,2.4895386E-1,-1.11960605E-1,-4.5610633E-1,-5.661306E-1,-4.0534362E-2,-3.355298E-1,9.686005E-2,-1.9514753E-1,1.3684316E-1,2.4370056E-2,3.5048828E-1,2.1813513E-1,-1.4145055E-2,-4.0566096E-1,1.1198016E-1,-1.1679202E-1,3.0747482E-1,1.878169E-1,-1.88605E-2,3.968546E-1,9.962706E-2,-3.1813163E-1,4.2124945E-1,2.5372228E-1,-4.6117932E-1,-9.678681E-2,-2.4636468E-1,4.058729E-1,-2.5544786E-1,-3.880007E-1,6.5250345E-2,-3.6079675E-1,-4.0587738E-1,-1.9148429E-1,-7.036629E-2,3.3630538E-1,-4.7827426E-1,1.9691646E-1,3.6481482E-1,9.575521E-2,-2.096557E-1,-3.550997E-1,3.314936E-2,-2.4524039E-1,1.777584E-2,4.5292035E-1,-3.51658E-1,-6.963285E-3],"split_indices":[16,16,16,16,16,16,16,16,16,16,0,16,0,14,16,16,14,16,0,16,16,0,14,16,0,0,0,0,0,16,16,16,16,0,16,0,16,0,16,16,0,16,16,14,9,0,0,0,0,0,17,17,14,0,2,16,0,16,16,16,16,0,0,0,0,0,0,0,0,0,0,0,0,0,0,0,0,0,0,0,0,0,0,0,0,0,0,0,0,0,0,0,0,0,0,0,0,0,0,0,0,0,0,0,0,0,0,0,0,0,0,0,0,0,0],"split_type":[0,0,0,0,0,0,0,0,0,0,0,0,0,0,0,0,0,0,0,0,0,0,0,0,0,0,0,0,0,0,0,0,0,0,0,0,0,0,0,0,0,0,0,0,0,0,0,0,0,0,0,0,0,0,0,0,0,0,0,0,0,0,0,0,0,0,0,0,0,0,0,0,0,0,0,0,0,0,0,0,0,0,0,0,0,0,0,0,0,0,0,0,0,0,0,0,0,0,0,0,0,0,0,0,0,0,0,0,0,0,0,0,0,0,0],"sum_hessian":[1.1350879E5,7.557013E4,3.793866E4,6.139584E4,1.4174293E4,1.8460872E3,3.609257E4,5.809033E4,3.3055137E3,1.2834418E4,1.3398751E3,1.5624606E3,2.836266E2,1.8158472E3,3.4276727E4,5.5838746E4,2.2515818E3,2.366634E3,9.388797E2,1.0435803E4,2.398615E3,5.320693E2,8.078059E2,6.6952234E2,8.9293823E2,4.414931E1,2.3947728E2,7.9885425E2,1.0169929E3,4.634327E3,2.9642398E4,5.4160848E4,1.6778965E3,1.7741572E3,4.7742447E2,3.5218213E2,2.0144518E3,1.11432846E2,8.274469E2,9.726559E3,7.0924347E2,6.893996E2,1.7092155E3,4.259129E2,1.06156364E2,5.317151E1,7.546344E2,3.118967E2,3.5762564E2,6.2711763E0,3.787813E1,3.5430634E1,2.0404665E2,1.5190751E1,7.836635E2,4.076967E2,6.092962E2,2.2004602E3,2.433867E3,5.43101E3,2.4211389E4,4.438303E4,9.777818E3,1.1464913E3,5.314051E2,5.429421E2,1.2312152E3,2.2857071E2,2.4885376E2,3.21703E2,3.0479132E1,8.7739905E2,1.1370527E3,6.500972E2,1.7734961E2,5.71715E3,4.009409E3,6.310858E2,7.815762E1,3.075349E2,3.818647E2,4.9828778E2,1.2109277E3,2.80343E2,1.4556993E2,1.2265005E0,1.0492986E2,4.4754375E1,8.417136E0,3.807583E1,7.1655853E2,2.5976763E1,3.3164886E2,4.547869E0,1.7233069E0,1.2228001E1,2.5650131E1,3.204995E1,3.3806825E0,1.8440506E1,1.8560614E2,2.4505657E1,7.5915784E2,1.4568152E2,2.620152E2,3.8276056E2,2.2653566E2,9.4160986E2,1.2588503E3,9.928555E2,1.4410115E3,4.0708252E3,1.3601848E3,1.6214545E3,2.2589934E4],"tree_param":{"num_deleted":"0","num_feature":"18","num_nodes":"115","size_leaf_vector":"1"}},{"base_weights":[-1.1236931E-3,2.0774977E-1,-2.7774235E-2,4.177294E-2,9.964146E-1,-1.29329E0,-1.481144E-2,1.546244E-1,-1.5245116E0,1.2221769E0,3.6449432E-1,-9.0206635E-1,-4.366378E-1,1.5524911E0,-2.5420664E-2,-2.5680012E-1,4.8071334E-1,-2.3951516E0,-7.245009E-1,-1.0534215E0,1.2654332E0,4.3141538E-1,-5.693315E-1,-6.537768E-1,-1.094965E0,2.2127693E0,1.3703443E0,-5.796108E-1,-1.4005204E-2,4.8141524E-1,-3.202451E-1,6.317787E-1,9.992114E-2,-8.300344E-1,-4.8811427E-1,-9.315183E-1,-2.4174862E-1,1.2718405E0,-2.0431137E-1,3.0462363E-1,8.976014E-1,-3.2495518E0,1.405225E-1,-9.5353025E-1,-2.7176878E-1,-3.278471E-1,-1.1536697E0,1.7433513E0,2.470781E0,2.8710917E-1,1.4974741E0,-3.119527E-1,-1.0040553E0,5.1672065E-1,-3.5513673E-2,1.9605152E-1,-6.708114E-2,-7.3558904E-2,-2.5998256E-1,1.1119516E-1,3.4499097E-1,-4.9464163E-1,1.3168773E-1,-2.4183013E-1,-7.7993214E-1,2.2464757E-1,-1.14606485E-1,4.0758005E-1,3.7115833E-1,-6.027782E-1,3.4872642E-1,-7.624852E-2,1.1485898E-1,3.7469614E-1,6.1856855E-2,-2.2083773E-1,-1.1251901E0,1.9301672E-1,-2.3961456E-1,-3.8896114E-1,-2.1277268E-1,-1.2926444E-1,2.0477346E-1,1.5885451E-1,-2.3476298E-1,-3.084452E-1,-3.9597085E-1,5.343128E-1,-4.659896E-3,7.761834E-1,5.752083E-1,-4.0041962E-1,1.437601E-1,6.874279E-1,3.8791707E-1,-1.6707128E-1,8.789468E-2,-3.7725988E-1,-2.584289E-1,1.0453057E-1,3.2177994E-1,-9.510596E-2,-2.1631403E-3],"categories":[],"categories_nodes":[],"categories_segments":[],"categories_sizes":[],"default_left":[0,0,0,0,0,0,0,0,0,0,0,0,0,0,0,0,0,0,0,0,0,0,0,0,0,0,0,0,0,0,0,0,0,0,0,0,0,0,0,0,0,0,0,0,0,0,0,0,0,0,0,0,0,0,0,0,0,0,0,0,0,0,0,0,0,0,0,0,0,0,0,0,0,0,0,0,0,0,0,0,0,0,0,0,0,0,0,0,0,0,0,0,0,0,0,0,0,0,0,0,0,0,0],"id":8,"left_children":[1,3,5,7,9,11,13,15,17,19,21,23,-1,25,27,29,31,33,35,-1,37,39,41,43,45,47,49,51,53,55,57,59,61,-1,-1,63,65,67,69,71,73,75,77,79,81,83,85,87,89,91,93,95,97,99,101,-1,-1,-1,-1,-1,-1,-1,-1,-1,-1,-1,-1,-1,-1,-1,-1,-1,-1,-1,-1,-1,-1,-1,-1,-1,-1,-1,-1,-1,-1,-1,-1,-1,-1,-1,-1,-1,-1,-1,-1,-1,-1,-1,-1,-1,-1,-1,-1],"loss_changes":[6.186978E2,1.6462249E3,1.6169562E3,1.8369167E3,3.114956E2,6.2093384E1,1.6224182E3,1.3006152E3,4.8474927E2,3.3421875E2,3.630233E1,1.3436951E1,0E0,7.5867676E1,6.131079E2,2.009219E2,3.110244E2,9.084619E1,3.6294403E1,0E0,1.5296387E1,3.1583801E1,7.468348E1,1.4819443E1,7.044052E0,1.2675293E1,7.074158E1,2.2189789E2,1.0839951E3,4.135469E1,1.6166904E2,5.234696E2,9.1211554E2,0E0,0E0,5.1341278E1,1.5712788E1,3.0981445E0,2.1558147E1,1.8688145E1,2.7615929E1,7.579872E0,1.553499E1,5.2296066E0,9.298062E0,5.5264215E0,1.8291931E0,3.549942E0,7.184448E-1,1.7936565E1,7.206653E1,1.781258E2,2.6247559E1,3.4561407E2,7.2713275E2,0E0,0E0,0E0,0E0,0E0,0E0,0E0,0E0,0E0,0E0,0E0,0E0,0E0,0E0,0E0,0E0,0E0,0E0,0E0,0E0,0E0,0E0,0E0,0E0,0E0,0E0,0E0,0E0,0E0,0E0,0E0,0E0,0E0,0E0,0E0,0E0,0E0,0E0,0E0,0E0,0E0,0E0,0E0,0E0,0E0,0E0,0E0,0E0],"parents":[2147483647,0,0,1,1,2,2,3,3,4,4,5,5,6,6,7,7,8,8,9,9,10,10,11,11,13,13,14,14,15,15,16,16,17,17,18,18,20,20,21,21,22,22,23,23,24,24,25,25,26,26,27,27,28,28,29,29,30,30,31,31,32,32,35,35,36,36,37,37,38,38,39,39,40,40,41,41,42,42,43,43,44,44,45,45,46,46,47,47,48,48,49,49,50,50,51,51,52,52,53,53,54,54],"right_children":[2,4,6,8,10,12,14,16,18,20,22,24,-1,26,28,30,32,34,36,-1,38,40,42,44,46,48,50,52,54,56,58,60,62,-1,-1,64,66,68,70,72,74,76,78,80,82,84,86,88,90,92,94,96,98,100,102,-1,-1,-1,-1,-1,-1,-1,-1,-1,-1,-1,-1,-1,-1,-1,-1,-1,-1,-1,-1,-1,-1,-1,-1,-1,-1,-1,-1,-1,-1,-1,-1,-1,-1,-1,-1,-1,-1,-1,-1,-1,-1,-1,-1,-1,-1,-1,-1],"split_conditions":[4.55E2,4.24E2,6.21E2,3.8E2,4.34E2,5.07E2,6.28E2,2.49E2,4E2,2.247E4,4.52906E5,3.9273E4,-4.366378E-1,1.3924E4,7.63E2,1.2E1,3.4E2,6.7617E4,5.0826E4,-1.0534215E0,6.4954E4,5.9819E4,6.6879E4,1.7174E4,1.665E3,4.2719E4,3.9023E4,7.19E2,8.03E2,4.8907E4,4.60943E5,3.39E2,3.57E2,-8.300344E-1,-4.8811427E-1,5.0464E4,5.3837E4,2.3754E4,7.2991E4,9.423E3,6.0375E4,6.656E4,7.1174E4,4.3587E4,9.949E3,5.5968E4,4.10864E5,3.4727E4,3.573E3,1.2254E4,3.9848E4,7E2,7.38E2,7.98E2,1.215E3,1.9605152E-1,-6.708114E-2,-7.3558904E-2,-2.5998256E-1,1.1119516E-1,3.4499097E-1,-4.9464163E-1,1.3168773E-1,-2.4183013E-1,-7.7993214E-1,2.2464757E-1,-1.14606485E-1,4.0758005E-1,3.7115833E-1,-6.027782E-1,3.4872642E-1,-7.624852E-2,1.1485898E-1,3.7469614E-1,6.1856855E-2,-2.2083773E-1,-1.1251901E0,1.9301672E-1,-2.3961456E-1,-3.8896114E-1,-2.1277268E-1,-1.2926444E-1,2.0477346E-1,1.5885451E-1,-2.3476298E-1,-3.084452E-1,-3.9597085E-1,5.343128E-1,-4.659896E-3,7.761834E-1,5.752083E-1,-4.0041962E-1,1.437601E-1,6.874279E-1,3.8791707E-1,-1.6707128E-1,8.789468E-2,-3.7725988E-1,-2.584289E-1,1.0453057E-1,3.2177994E-1,-9.510596E-2,-2.1631403E-3],"split_indices":[16,16,16,16,16,16,16,16,16,0,14,0,0,0,16,16,16,0,0,0,0,0,0,0,3,2,0,16,16,0,14,16,16,0,0,0,0,0,0,0,0,0,0,2,3,0,14,2,0,1,0,16,16,16,16,0,0,0,0,0,0,0,0,0,0,0,0,0,0,0,0,0,0,0,0,0,0,0,0,0,0,0,0,0,0,0,0,0,0,0,0,0,0,0,0,0,0,0,0,0,0,0,0],"split_type":[0,0,0,0,0,0,0,0,0,0,0,0,0,0,0,0,0,0,0,0,0,0,0,0,0,0,0,0,0,0,0,0,0,0,0,0,0,0,0,0,0,0,0,0,0,0,0,0,0,0,0,0,0,0,0,0,0,0,0,0,0,0,0,0,0,0,0,0,0,0,0,0,0,0,0,0,0,0,0,0,0,0,0,0,0,0,0,0,0,0,0,0,0,0,0,0,0,0,0,0,0,0,0],"sum_hessian":[1.11142805E5,1.2575512E4,9.856729E4,1.0389966E4,2.185546E3,9.9839545E2,9.75689E4,9.692518E3,6.9744867E2,1.6095702E3,5.759755E2,2.9449838E2,7.038971E2,6.5503564E2,9.691386E4,4.285606E3,5.406911E3,3.3302664E2,3.6442206E2,1.3849282E1,1.595721E3,5.379614E2,3.801409E1,1.3068123E2,1.6381715E2,1.3921954E2,5.158161E2,1.954981E3,9.495888E4,3.3864993E2,3.946956E3,3.870695E3,1.5362161E3,2.2268407E2,1.10342575E2,2.5439912E2,1.1002293E2,1.5889287E3,6.7922373E0,4.242333E2,1.1372814E2,7.210685E0,3.0803406E1,7.2385666E1,5.829556E1,1.2113234E1,1.5170392E2,5.2131004E1,8.708854E1,5.4520603E1,4.6129547E2,1.1999916E3,7.5498944E2,3.6975698E3,9.126131E4,2.7226514E2,6.638478E1,3.4715508E3,4.7540518E2,2.5748735E3,1.2958218E3,2.4884308E2,1.2873729E3,2.3799042E2,1.6408703E1,1.3109373E1,9.691355E1,4.425342E2,1.1463945E3,2.7243102E0,4.0679274E0,5.182831E1,3.72405E2,7.487112E1,3.8857025E1,1.6090031E0,5.6016817E0,2.0267305E1,1.0536099E1,2.831747E1,4.4068195E1,5.0435287E1,7.8602734E0,4.1408386E0,7.972395E0,9.0530914E1,6.1173004E1,5.102499E1,1.106011E0,6.890808E1,1.8180458E1,5.143678E0,4.9376926E1,9.2360344E1,3.6893512E2,8.5419037E2,3.4580118E2,2.6903586E2,4.8595358E2,2.8395566E3,8.5801324E2,8.336413E3,8.29249E4],"tree_param":{"num_deleted":"0","num_feature":"18","num_nodes":"103","size_leaf_vector":"1"}},{"base_weights":[1.7981722E-4,1.1525364E-2,-3.8256884E-1,2.3393482E-3,4.8653725E-1,-9.489731E-1,-2.4233277E-1,5.173147E-2,-8.874009E-2,8.713203E-1,1.407638E-1,-1.0069735E0,1.15343824E-1,-1.4057289E-1,-3.5830128E-1,2.8746659E-2,5.575686E-1,1.7417747E-1,-1.3018125E-1,1.053292E0,2.9312387E-1,-8.2067174E-1,2.138513E-1,-1.0139172E0,3.7285066E-1,5.156319E-1,-1.1040331E0,-2.9089704E-1,5.575137E-1,1.1316404E-2,3.1715906E-1,8.208989E-1,5.5178296E-2,1.0284553E-1,5.161551E-1,-5.5673397E-1,-9.875002E-2,8.1352544E-1,1.3274517E0,1.2091691E0,8.5312575E-2,6.560108E-1,-1.0053736E0,8.572825E-1,1.2075091E-1,-4.3354198E-1,-1.0238748E0,2.386363E-1,-4.2186655E-2,-3.5857895E-1,-3.5301134E-1,5.028887E-2,-8.331977E-1,1.4402518E0,-6.766926E-1,9.549266E-3,-1.6808328E-1,4.6151347E-2,2.9466048E-1,1.0649582E-1,3.4958237E-1,-2.2005259E-1,6.826741E-2,3.2639115E-3,9.9722125E-2,2.3698735E-1,7.0803806E-2,-3.466647E-1,-2.4408452E-2,2.8836986E-2,-4.4494726E-2,-7.037556E-2,3.3346188E-1,4.0446576E-1,3.1071317E-1,3.8074717E-1,1.4460534E-1,-2.6511336E-2,1.8888907E-1,3.1240833E-1,-2.4537434E-1,-4.0097767E-1,-1.16262354E-1,-5.6945678E-2,5.634065E-1,-1.007371E-1,9.597548E-2,-1.9940843E-1,2.4914822E-1,-3.2787082E-1,-2.8053802E-1,-2.0862809E-1,4.8196737E-2,-1.5757903E-1,9.5209695E-2,-3.303005E-1,-1.627953E-1,4.5760095E-2,5.9464204E-1,-3.5671332E-1,4.876096E-2],"categories":[],"categories_nodes":[],"categories_segments":[],"categories_sizes":[],"default_left":[0,0,0,0,0,0,0,0,0,0,0,0,0,0,0,0,0,0,0,0,0,0,0,0,0,0,0,0,0,0,0,0,0,0,0,0,0,0,0,0,0,0,0,0,0,0,0,0,0,0,0,0,0,0,0,0,0,0,0,0,0,0,0,0,0,0,0,0,0,0,0,0,0,0,0,0,0,0,0,0,0,0,0,0,0,0,0,0,0,0,0,0,0,0,0,0,0,0,0,0,0],"id":9,"left_children":[1,3,5,7,9,11,13,15,17,19,21,23,25,27,-1,29,31,33,35,37,39,41,43,45,47,-1,49,51,53,55,57,59,61,63,65,67,69,71,73,75,77,79,81,83,85,87,89,-1,-1,91,-1,93,95,97,99,-1,-1,-1,-1,-1,-1,-1,-1,-1,-1,-1,-1,-1,-1,-1,-1,-1,-1,-1,-1,-1,-1,-1,-1,-1,-1,-1,-1,-1,-1,-1,-1,-1,-1,-1,-1,-1,-1,-1,-1,-1,-1,-1,-1,-1,-1],"loss_changes":[4.7479037E2,4.6334766E2,2.4978976E2,4.6864545E2,2.679097E2,3.865625E1,2.4437961E2,7.8530963E2,3.991279E2,9.9993164E1,7.481915E1,6.0515747E0,6.673505E1,2.3960228E2,0E0,3.2480255E2,3.8834076E2,1.2162186E2,4.2418506E2,4.655841E1,4.360263E1,2.1184654E1,5.908155E1,2.9627686E0,9.139063E-1,0E0,6.314945E-1,3.4753406E2,4.4180255E2,7.1447797E2,3.9979355E2,3.0862537E2,1.3757233E2,8.715263E1,6.582498E1,6.180253E2,2.8469083E2,1.2182422E2,6.4245605E-1,1.236763E0,1.784909E1,5.9472656E0,1.3250488E1,1.3366309E2,7.869477E1,3.9639928E0,2.5237427E0,0E0,0E0,6.6539586E-1,0E0,1.7751624E2,5.5840637E1,1.645315E2,7.3033005E1,0E0,0E0,0E0,0E0,0E0,0E0,0E0,0E0,0E0,0E0,0E0,0E0,0E0,0E0,0E0,0E0,0E0,0E0,0E0,0E0,0E0,0E0,0E0,0E0,0E0,0E0,0E0,0E0,0E0,0E0,0E0,0E0,0E0,0E0,0E0,0E0,0E0,0E0,0E0,0E0,0E0,0E0,0E0,0E0,0E0,0E0],"parents":[2147483647,0,0,1,1,2,2,3,3,4,4,5,5,6,6,7,7,8,8,9,9,10,10,11,11,12,12,13,13,15,15,16,16,17,17,18,18,19,19,20,20,21,21,22,22,23,23,24,24,26,26,27,27,28,28,29,29,30,30,31,31,32,32,33,33,34,34,35,35,36,36,37,37,38,38,39,39,40,40,41,41,42,42,43,43,44,44,45,45,46,46,49,49,51,51,52,52,53,53,54,54],"right_children":[2,4,6,8,10,12,14,16,18,20,22,24,26,28,-1,30,32,34,36,38,40,42,44,46,48,-1,50,52,54,56,58,60,62,64,66,68,70,72,74,76,78,80,82,84,86,88,90,-1,-1,92,-1,94,96,98,100,-1,-1,-1,-1,-1,-1,-1,-1,-1,-1,-1,-1,-1,-1,-1,-1,-1,-1,-1,-1,-1,-1,-1,-1,-1,-1,-1,-1,-1,-1,-1,-1,-1,-1,-1,-1,-1,-1,-1,-1,-1,-1,-1,-1,-1,-1],"split_conditions":[4.694E3,7.3214E4,4.772E3,9.6434E4,1.407E3,1.47042E5,4.964E3,3.12173E5,2.6218E4,7.377E4,2.016E3,3.351E3,4.86933E5,4.933E3,-3.5830128E-1,4.552E3,2.325E3,4.019E3,3.3825E5,1.215E3,5.3E1,7.3363E4,2.325E3,1.357E3,8.08E2,5.156319E-1,2.7726E4,4.847E3,3.1393E4,4.253E3,3.8741E4,1.114E3,2.911E3,4.56903E5,4.253E3,2.152E3,8.55E2,7.3638E4,7.3363E4,2E0,1.114E3,1.498E3,7.4109E4,2.306E3,3.304E3,3.969E3,2.56291E5,2.386363E-1,-4.2186655E-2,7.1511E4,-3.5301134E-1,4.817E3,4.885E3,2.3604E4,4.8529E4,9.549266E-3,-1.6808328E-1,4.6151347E-2,2.9466048E-1,1.0649582E-1,3.4958237E-1,-2.2005259E-1,6.826741E-2,3.2639115E-3,9.9722125E-2,2.3698735E-1,7.0803806E-2,-3.466647E-1,-2.4408452E-2,2.8836986E-2,-4.4494726E-2,-7.037556E-2,3.3346188E-1,4.0446576E-1,3.1071317E-1,3.8074717E-1,1.4460534E-1,-2.6511336E-2,1.8888907E-1,3.1240833E-1,-2.4537434E-1,-4.0097767E-1,-1.16262354E-1,-5.6945678E-2,5.634065E-1,-1.007371E-1,9.597548E-2,-1.9940843E-1,2.4914822E-1,-3.2787082E-1,-2.8053802E-1,-2.0862809E-1,4.8196737E-2,-1.5757903E-1,9.5209695E-2,-3.303005E-1,-1.627953E-1,4.5760095E-2,5.9464204E-1,-3.5671332E-1,4.876096E-2],"split_indices":[16,0,16,13,16,13,16,14,2,0,16,7,14,16,0,16,16,16,14,16,16,0,16,0,4,0,1,16,0,16,0,16,16,14,16,16,16,0,0,15,16,16,0,16,16,5,14,0,0,0,0,16,16,0,0,0,0,0,0,0,0,0,0,0,0,0,0,0,0,0,0,0,0,0,0,0,0,0,0,0,0,0,0,0,0,0,0,0,0,0,0,0,0,0,0,0,0,0,0,0,0],"split_type":[0,0,0,0,0,0,0,0,0,0,0,0,0,0,0,0,0,0,0,0,0,0,0,0,0,0,0,0,0,0,0,0,0,0,0,0,0,0,0,0,0,0,0,0,0,0,0,0,0,0,0,0,0,0,0,0,0,0,0,0,0,0,0,0,0,0,0,0,0,0,0,0,0,0,0,0,0,0,0,0,0,0,0,0,0,0,0,0,0,0,0,0,0,0,0,0,0,0,0,0,0],"sum_hessian":[1.093339E5,1.06187234E5,3.1466628E3,1.0417368E5,2.0135573E3,6.233254E2,2.5233376E3,6.754477E4,3.6628906E4,9.523002E2,1.0612571E3,5.911636E2,3.2161816E1,2.280701E3,2.4263666E2,6.4610004E4,2.9347668E3,4.986918E3,3.1641988E4,7.237102E2,2.2858997E2,7.425358E1,9.8700354E2,5.884674E2,2.6961486E0,1.3716132E1,1.8445684E1,1.8770789E3,4.0362198E2,6.09288E4,3.6812039E3,1.9250885E3,1.0096783E3,4.1273164E3,8.59602E2,2.1704292E3,2.947156E4,3.881876E2,3.355226E2,4.137736E1,1.8721262E2,7.971344E0,6.6282234E1,1.2372345E2,8.632801E2,1.0677408E1,5.7779E2,1.1777004E0,1.5184482E0,2.1655884E0,1.6280096E1,1.1527432E3,7.2433575E2,2.3521957E2,1.6840242E2,5.8818742E4,2.1100576E3,2.9564016E3,7.2480225E2,8.190329E2,1.1060557E3,1.80515E2,8.2916327E2,2.9475361E3,1.1797802E3,4.337996E2,4.258024E2,9.5987164E2,1.2105575E3,5.9758574E3,2.3495703E4,8.598671E1,3.022009E2,3.0984518E2,2.5677433E1,3.7535404E1,3.841954E0,1.4256113E2,4.4651493E1,6.551869E0,1.4194753E0,4.2392406E1,2.3889832E1,6.14749E1,6.2248554E1,2.620075E2,6.012726E2,9.427552E0,1.2498561E0,3.1863898E2,2.59151E2,1.1076692E0,1.0579191E0,3.6506305E2,7.876801E2,3.7546823E2,3.488675E2,7.004628E1,1.651733E2,1.043063E2,6.4096115E1],"tree_param":{"num_deleted":"0","num_feature":"18","num_nodes":"101","size_leaf_vector":"1"}},{"base_weights":[-9.8756034E-5,1.5572043E-1,-1.8628769E-2,2.612753E-2,8.4772104E-1,-1.1229631E0,-8.918656E-3,1.07114054E-1,-1.006961E0,1.0912677E0,2.6826563E-1,-7.385785E-1,-3.89465E-1,1.1622041E0,-1.590689E-2,-1.9976297E-1,3.701373E-1,-1.6049849E0,-4.9089018E-1,-5.604707E-1,1.1343664E0,3.230379E-1,-4.184861E-1,-5.1915103E-1,-9.1716266E-1,4.8535943E-1,1.0508784E0,-4.651654E-1,-7.231902E-3,-1.1607433E-1,-6.9603664E-1,4.1791052E-1,-9.0129304E-1,-5.057527E-1,-4.1793907E-1,-7.666272E-1,-2.6542908E-1,1.1411302E0,-1.6524172E-1,2.1925142E-1,7.5486714E-1,-1.7452755E0,6.106136E-2,-7.831896E-1,-2.0849662E-1,-2.6510397E-1,-9.7257084E-1,5.405666E-1,1.1673095E0,-2.4127631E-1,-8.7615925E-1,7.3357695E-1,-1.5752804E-2,-1.4120748E-2,-1.8193892E-1,-3.4602463E-1,-1.2972714E-1,-1.9332974E-1,1.3756213E-1,-4.3353024E-1,-4.1909646E-2,2.3779194E-1,-2.460829E-1,1.0703085E-2,-1.2720653E-1,2.0334165E-1,3.445595E-1,-4.548214E-1,3.095376E-1,-1.9650589E-1,7.754552E-2,3.4250522E-1,3.8861617E-2,-5.824063E-1,-2.2321394E-2,1.3903129E-1,-1.8413332E-1,-2.4757144E-1,2.026351E-1,3.3877933E-1,-9.634743E-2,-3.322359E-1,3.3201497E-2,-3.166834E-1,-2.0498173E-1,3.490793E-1,3.2943875E-2,4.986845E-1,3.0215412E-1,5.237527E-1,-8.882111E-2,-3.52959E-1,-2.1693845E-1,1.5726477E-1,2.9759774E-1,-1.1241713E-3,-7.970474E-2],"categories":[],"categories_nodes":[],"categories_segments":[],"categories_sizes":[],"default_left":[0,0,0,0,0,0,0,0,0,0,0,0,0,0,0,0,0,0,0,0,0,0,0,0,0,0,0,0,0,0,0,0,0,0,0,0,0,0,0,0,0,0,0,0,0,0,0,0,0,0,0,0,0,0,0,0,0,0,0,0,0,0,0,0,0,0,0,0,0,0,0,0,0,0,0,0,0,0,0,0,0,0,0,0,0,0,0,0,0,0,0,0,0,0,0,0,0],"id":10,"left_children":[1,3,5,7,9,11,13,15,17,19,21,23,-1,25,27,29,31,33,35,-1,37,39,41,43,45,-1,47,49,51,53,55,57,59,-1,-1,61,63,65,67,69,71,73,75,77,79,81,83,85,87,89,91,93,95,-1,-1,-1,-1,-1,-1,-1,-1,-1,-1,-1,-1,-1,-1,-1,-1,-1,-1,-1,-1,-1,-1,-1,-1,-1,-1,-1,-1,-1,-1,-1,-1,-1,-1,-1,-1,-1,-1,-1,-1,-1,-1,-1,-1],"loss_changes":[3.131369E2,1.0336458E3,1.0393436E3,8.124506E2,2.5628088E2,5.5951294E1,7.863597E2,7.2687274E2,2.1707062E2,1.6535022E2,2.0422314E1,9.981659E0,0E0,2.7211304E1,3.722401E2,1.7254535E2,2.949068E2,3.2451172E0,2.3442513E1,0E0,1.1281738E1,2.2246365E1,2.5730906E1,9.847702E0,5.0107727E0,0E0,2.6753448E1,1.6628043E2,5.9150806E2,1.2036659E2,7.179205E1,2.0204248E2,7.26561E1,0E0,0E0,1.4919075E1,1.0080786E1,3.5270996E0,1.3542022E1,1.4046595E1,2.3191395E1,3.3695107E0,8.579384E0,4.5815887E0,9.019254E0,4.172835E0,2.4986038E0,2.3350323E1,2.800116E1,1.2820044E2,2.846106E1,5.7129517E1,2.7796948E2,0E0,0E0,0E0,0E0,0E0,0E0,0E0,0E0,0E0,0E0,0E0,0E0,0E0,0E0,0E0,0E0,0E0,0E0,0E0,0E0,0E0,0E0,0E0,0E0,0E0,0E0,0E0,0E0,0E0,0E0,0E0,0E0,0E0,0E0,0E0,0E0,0E0,0E0,0E0,0E0,0E0,0E0,0E0,0E0],"parents":[2147483647,0,0,1,1,2,2,3,3,4,4,5,5,6,6,7,7,8,8,9,9,10,10,11,11,13,13,14,14,15,15,16,16,17,17,18,18,20,20,21,21,22,22,23,23,24,24,26,26,27,27,28,28,29,29,30,30,31,31,32,32,35,35,36,36,37,37,38,38,39,39,40,40,41,41,42,42,43,43,44,44,45,45,46,46,47,47,48,48,49,49,50,50,51,51,52,52],"right_children":[2,4,6,8,10,12,14,16,18,20,22,24,-1,26,28,30,32,34,36,-1,38,40,42,44,46,-1,48,50,52,54,56,58,60,-1,-1,62,64,66,68,70,72,74,76,78,80,82,84,86,88,90,92,94,96,-1,-1,-1,-1,-1,-1,-1,-1,-1,-1,-1,-1,-1,-1,-1,-1,-1,-1,-1,-1,-1,-1,-1,-1,-1,-1,-1,-1,-1,-1,-1,-1,-1,-1,-1,-1,-1,-1,-1,-1,-1,-1,-1,-1],"split_conditions":[4.55E2,4.24E2,6.21E2,3.8E2,4.34E2,5.07E2,6.28E2,2.49E2,4E2,2.247E4,4.52906E5,3.9273E4,-3.89465E-1,3.573E3,7.63E2,1.92E2,6.8306E4,6.7617E4,3.418E4,-5.604707E-1,6.4954E4,5.9819E4,6.6879E4,1.7174E4,1.665E3,4.8535943E-1,3.9023E4,7.19E2,7.75E2,4.60943E5,2.11E2,9.554E3,7.1174E4,-5.057527E-1,-4.1793907E-1,6.45E2,4.8529E4,1.1672E4,7.2991E4,5.589E3,6.0375E4,1E0,7.1174E4,4.281E3,2.171E3,2.167E3,9.404E3,1.5929E4,3.9848E4,6.45E2,7.38E2,7.73E2,4.664E3,-1.4120748E-2,-1.8193892E-1,-3.4602463E-1,-1.2972714E-1,-1.9332974E-1,1.3756213E-1,-4.3353024E-1,-4.1909646E-2,2.3779194E-1,-2.460829E-1,1.0703085E-2,-1.2720653E-1,2.0334165E-1,3.445595E-1,-4.548214E-1,3.095376E-1,-1.9650589E-1,7.754552E-2,3.4250522E-1,3.8861617E-2,-5.824063E-1,-2.2321394E-2,1.3903129E-1,-1.8413332E-1,-2.4757144E-1,2.026351E-1,3.3877933E-1,-9.634743E-2,-3.322359E-1,3.3201497E-2,-3.166834E-1,-2.0498173E-1,3.490793E-1,3.2943875E-2,4.986845E-1,3.0215412E-1,5.237527E-1,-8.882111E-2,-3.52959E-1,-2.1693845E-1,1.5726477E-1,2.9759774E-1,-1.1241713E-3,-7.970474E-2],"split_indices":[16,16,16,16,16,16,16,16,16,0,14,0,0,0,16,16,0,0,0,0,0,0,0,0,3,0,0,16,16,14,16,2,0,0,0,0,0,1,0,2,0,15,0,5,7,4,3,0,0,0,16,16,16,0,0,0,0,0,0,0,0,0,0,0,0,0,0,0,0,0,0,0,0,0,0,0,0,0,0,0,0,0,0,0,0,0,0,0,0,0,0,0,0,0,0,0,0],"split_type":[0,0,0,0,0,0,0,0,0,0,0,0,0,0,0,0,0,0,0,0,0,0,0,0,0,0,0,0,0,0,0,0,0,0,0,0,0,0,0,0,0,0,0,0,0,0,0,0,0,0,0,0,0,0,0,0,0,0,0,0,0,0,0,0,0,0,0,0,0,0,0,0,0,0,0,0,0,0,0,0,0,0,0,0,0,0,0,0,0,0,0,0,0,0,0,0,0],"sum_hessian":[1.08450016E5,1.1525393E4,9.6924625E4,9.708324E3,1.8170675E3,8.4380444E2,9.608082E4,9.003419E3,7.049054E2,1.2787305E3,5.3833704E2,2.6587448E2,5.7792993E2,5.689447E2,9.5511875E4,4.1554146E3,4.848005E3,3.2554877E2,3.7935666E2,1.7746803E1,1.2609836E3,4.9906357E2,3.927347E1,1.2104849E2,1.44826E2,1.0905309E2,4.598916E2,1.8083583E3,9.3703516E4,3.5568433E3,5.98571E2,4.673088E3,1.7491714E2,2.3058508E2,9.4963684E1,1.6957167E2,2.0978497E2,1.2545762E3,6.4074445E0,4.035754E2,9.548816E1,9.725631E0,2.9547842E1,6.461139E1,5.6437103E1,1.1795683E1,1.3303032E2,8.6483116E1,3.7340848E2,1.1716749E3,6.366834E2,1.0645691E3,9.2638945E4,3.1190425E3,4.3780087E2,2.1761859E2,3.8095242E2,1.7159369E2,4.501494E3,1.01526115E2,7.339104E1,5.1821556E0,1.6438951E2,7.2641655E1,1.3714333E2,2.1181667E1,1.2333945E3,2.8851192E0,3.5223255E0,1.6658867E1,3.8691653E2,5.8484787E1,3.7003376E1,8.559303E0,1.166327E0,1.8706974E1,1.0840868E1,6.3223087E1,1.3883029E0,3.682847E0,5.2754257E1,3.0381558E0,8.757527E0,1.01303246E2,3.1727068E1,3.465611E1,5.1827007E1,8.898078E1,2.844277E2,3.0613346E1,1.1410615E3,2.1263449E2,4.2404892E2,5.8977686E2,4.747923E2,8.839389E4,4.245054E3],"tree_param":{"num_deleted":"0","num_feature":"18","num_nodes":"97","size_leaf_vector":"1"}},{"base_weights":[1.609791E-4,-6.2837796E-3,3.6045623E-1,6.562808E-2,-4.325989E-2,7.5951236E-1,8.961946E-2,-4.3790698E-2,1.5962595E-1,-1.0929291E0,-3.2936253E-2,5.057739E-1,1.2156494E0,2.613738E-1,-1.1211629E-1,3.568494E-2,-3.9398566E-1,4.2889652E-1,1.0841421E-1,5.957728E-2,-1.8562568E0,2.1814172E-1,-5.3815145E-2,6.2319326E-1,-6.3728917E-1,3.6845273E-1,6.5526146E-1,8.643494E-2,9.820209E-1,-3.9375132E-1,2.2868657E-1,-1.6115928E-1,1.4603654E-1,4.606481E-1,-5.804765E-1,2.797251E-1,3.5237532E-2,9.513534E-1,-2.1409316E-1,-2.8115993E0,-9.358336E-1,1.742228E-1,9.336047E-1,-1.16453044E-1,1.2166438E-2,1.4250398E0,5.310889E-1,-1.2081758E0,3.4976402E-1,-1.7565389E-1,9.3644774E-1,-1.7417024E-1,6.2154186E-1,1.3631407E0,-9.131948E-1,-8.8492435E-1,9.539432E-2,1.7597039E0,-2.5165182E-1,-2.1395253E-3,-2.815795E-1,2.5265765E-1,1.9130379E-2,2.8898084E-1,-3.7334338E-2,-4.136128E-1,-1.50281E-1,5.142576E-2,4.3512788E-1,-1.3237225E-1,3.0153284E-2,-2.5024998E-1,3.3754158E-1,-1.8608351E-1,1.7057694E-1,-3.7407357E-1,-8.7093717E-1,-3.4932166E-1,1.7962044E-1,-1.6906679E-1,6.1238635E-2,6.0222155E-1,2.2797018E-1,-2.8414745E-2,-1.8793404E-1,1.344692E-1,-1.7133934E-2,3.052528E-1,8.455425E-1,2.2935148E-1,9.2087975E-3,-3.923935E-1,2.2500505E-1,5.7662535E-1,-1.7771517E-1,5.164296E-3,3.41969E-1,5.2541148E-2,-5.010731E-1,4.42242E-1,5.7066698E-2,-2.575491E-1,4.6831718E-1,-4.1062847E-1,-1.1099271E-2,-7.5015254E-2,-4.3753397E-1,-3.4245485E-1,4.261887E-2,5.485118E-1,9.0304166E-2,-5.597244E-1,-5.2658428E-2],"categories":[],"categories_nodes":[],"categories_segments":[],"categories_sizes":[],"default_left":[0,0,0,0,0,0,0,0,0,0,0,0,0,0,0,0,0,0,0,0,0,0,0,0,0,0,0,0,0,0,0,0,0,0,0,0,0,0,0,0,0,0,0,0,0,0,0,0,0,0,0,0,0,0,0,0,0,0,0,0,0,0,0,0,0,0,0,0,0,0,0,0,0,0,0,0,0,0,0,0,0,0,0,0,0,0,0,0,0,0,0,0,0,0,0,0,0,0,0,0,0,0,0,0,0,0,0,0,0,0,0,0,0],"id":11,"left_children":[1,3,5,7,9,11,13,15,17,19,21,23,25,27,29,31,33,-1,35,37,39,41,43,45,47,-1,49,51,53,55,57,59,61,63,65,67,69,71,73,75,77,79,81,83,85,87,89,91,93,-1,95,97,99,101,103,105,107,109,111,-1,-1,-1,-1,-1,-1,-1,-1,-1,-1,-1,-1,-1,-1,-1,-1,-1,-1,-1,-1,-1,-1,-1,-1,-1,-1,-1,-1,-1,-1,-1,-1,-1,-1,-1,-1,-1,-1,-1,-1,-1,-1,-1,-1,-1,-1,-1,-1,-1,-1,-1,-1,-1,-1],"loss_changes":[2.4865627E2,2.79744E2,2.0331943E2,3.674505E2,7.52876E2,8.7427155E1,3.89106E1,4.595048E2,1.2497417E3,5.9539325E2,3.606992E2,6.623114E1,1.098877E0,7.636519E1,4.9687256E1,2.9232968E2,4.8698898E2,0E0,2.3157268E2,6.623709E1,3.553285E2,1.658257E2,2.625375E2,3.213127E1,2.6448587E1,0E0,3.3649285E0,6.8308014E1,8.673458E1,6.8147385E1,1.7285141E2,5.7889844E2,4.9381442E2,1.6115048E2,1.5849799E2,7.0080444E2,4.0266318E2,2.0710373E1,6.643152E1,2.4914917E1,7.394681E1,1.0995413E2,5.5417206E1,3.6119693E2,9.346297E2,2.2849182E1,4.6816475E1,6.7436714E0,2.7358679E1,0E0,1.283196E0,1.7257248E2,5.8702053E1,4.4844864E1,8.098328E0,5.113983E1,8.407752E0,5.0702057E0,2.170665E1,0E0,0E0,0E0,0E0,0E0,0E0,0E0,0E0,0E0,0E0,0E0,0E0,0E0,0E0,0E0,0E0,0E0,0E0,0E0,0E0,0E0,0E0,0E0,0E0,0E0,0E0,0E0,0E0,0E0,0E0,0E0,0E0,0E0,0E0,0E0,0E0,0E0,0E0,0E0,0E0,0E0,0E0,0E0,0E0,0E0,0E0,0E0,0E0,0E0,0E0,0E0,0E0,0E0,0E0],"parents":[2147483647,0,0,1,1,2,2,3,3,4,4,5,5,6,6,7,7,8,8,9,9,10,10,11,11,12,12,13,13,14,14,15,15,16,16,18,18,19,19,20,20,21,21,22,22,23,23,24,24,26,26,27,27,28,28,29,29,30,30,31,31,32,32,33,33,34,34,35,35,36,36,37,37,38,38,39,39,40,40,41,41,42,42,43,43,44,44,45,45,46,46,47,47,48,48,50,50,51,51,52,52,53,53,54,54,55,55,56,56,57,57,58,58],"right_children":[2,4,6,8,10,12,14,16,18,20,22,24,26,28,30,32,34,-1,36,38,40,42,44,46,48,-1,50,52,54,56,58,60,62,64,66,68,70,72,74,76,78,80,82,84,86,88,90,92,94,-1,96,98,100,102,104,106,108,110,112,-1,-1,-1,-1,-1,-1,-1,-1,-1,-1,-1,-1,-1,-1,-1,-1,-1,-1,-1,-1,-1,-1,-1,-1,-1,-1,-1,-1,-1,-1,-1,-1,-1,-1,-1,-1,-1,-1,-1,-1,-1,-1,-1,-1,-1,-1,-1,-1,-1,-1,-1,-1,-1,-1],"split_conditions":[7.3214E4,1.70341E5,1.235E3,1.1837E4,5.0876E4,1.215E3,7.377E4,9.7E3,8.2158E4,2.713E3,1.4578E4,9.96E2,7.4109E4,5.08954E5,3.7E3,2E3,8.03E2,4.2889652E-1,1.235E3,2.68E2,2.857E3,1.3826E4,2.772E3,5.3E1,5.10999E5,3.6845273E-1,1.318E3,4.03E3,3.311E3,7.4109E4,3.715E3,1.498E3,2.128E3,1.0379E4,6.6264E4,1.215E3,1.961E3,2.11E2,2.096E3,2.838E3,4.499E3,2.68E2,6.44E2,2.565E3,2.928E3,2.9E1,7.377E4,2.704E3,7.4109E4,-1.7565389E-1,2E1,3.518E3,4.099E3,2.43E3,4.539E3,2.838E3,5.28E2,7.4109E4,3.724E3,-2.1395253E-3,-2.815795E-1,2.5265765E-1,1.9130379E-2,2.8898084E-1,-3.7334338E-2,-4.136128E-1,-1.50281E-1,5.142576E-2,4.3512788E-1,-1.3237225E-1,3.0153284E-2,-2.5024998E-1,3.3754158E-1,-1.8608351E-1,1.7057694E-1,-3.7407357E-1,-8.7093717E-1,-3.4932166E-1,1.7962044E-1,-1.6906679E-1,6.1238635E-2,6.0222155E-1,2.2797018E-1,-2.8414745E-2,-1.8793404E-1,1.344692E-1,-1.7133934E-2,3.052528E-1,8.455425E-1,2.2935148E-1,9.2087975E-3,-3.923935E-1,2.2500505E-1,5.7662535E-1,-1.7771517E-1,5.164296E-3,3.41969E-1,5.2541148E-2,-5.010731E-1,4.42242E-1,5.7066698E-2,-2.575491E-1,4.6831718E-1,-4.1062847E-1,-1.1099271E-2,-7.5015254E-2,-4.3753397E-1,-3.4245485E-1,4.261887E-2,5.485118E-1,9.0304166E-2,-5.597244E-1,-5.2658428E-2],"split_indices":[0,14,16,0,13,16,0,0,14,16,2,16,0,14,16,16,16,0,16,16,16,2,16,16,14,0,6,16,16,0,16,16,16,0,14,16,16,16,16,16,16,16,16,16,16,16,0,8,0,0,17,16,16,16,16,16,5,0,16,0,0,0,0,0,0,0,0,0,0,0,0,0,0,0,0,0,0,0,0,0,0,0,0,0,0,0,0,0,0,0,0,0,0,0,0,0,0,0,0,0,0,0,0,0,0,0,0,0,0,0,0,0,0],"split_type":[0,0,0,0,0,0,0,0,0,0,0,0,0,0,0,0,0,0,0,0,0,0,0,0,0,0,0,0,0,0,0,0,0,0,0,0,0,0,0,0,0,0,0,0,0,0,0,0,0,0,0,0,0,0,0,0,0,0,0,0,0,0,0,0,0,0,0,0,0,0,0,0,0,0,0,0,0,0,0,0,0,0,0,0,0,0,0,0,0,0,0,0,0,0,0,0,0,0,0,0,0,0,0,0,0,0,0,0,0,0,0,0,0],"sum_hessian":[1.070844E5,1.0520356E5,1.8808395E3,3.5724695E4,6.947886E4,7.596913E2,1.1211482E3,1.6508459E4,1.9216236E4,6.756574E2,6.88032E4,4.8950162E2,2.7018967E2,6.0541376E2,5.157344E2,1.3455642E4,3.0528171E3,7.437845E2,1.8472453E4,2.6957022E2,4.060872E2,5.28149E3,6.3521715E4,4.443149E2,4.518673E1,2.6311652E2,7.0731354E0,4.8805673E2,1.1735702E2,2.8229453E2,2.3343987E2,4.833402E3,8.62224E3,5.465709E2,2.5062463E3,5.528077E3,1.2944376E4,6.2719067E1,2.0685117E2,1.9825554E2,2.0783167E2,4.977206E3,3.0428387E2,3.2586143E4,3.0935572E4,4.4286995E1,4.000279E2,2.8486713E1,1.6700018E1,1.1068236E0,5.966312E0,3.2866595E2,1.593908E2,9.794204E1,1.9414978E1,1.4045163E2,1.418429E2,5.511246E1,1.783274E2,4.0349917E3,7.9841016E2,9.1027454E2,7.711966E3,2.936592E2,2.529117E2,2.2562502E2,2.2806213E3,5.0610107E3,4.6706656E2,1.5589198E3,1.1385456E4,5.2259645E0,5.7493103E1,1.3631561E2,7.053555E1,1.1763995E1,1.8649155E2,1.810985E2,2.6733164E1,1.9319719E2,4.7840093E3,4.0898987E1,2.633849E2,3.1255154E4,1.3309885E3,4.2403286E3,2.6695244E4,3.560423E1,8.682764E0,2.724238E2,1.2760411E2,2.7421194E1,1.0655184E0,5.8676224E0,1.0832396E1,1.2777458E0,4.688566E0,2.6716943E2,6.149653E1,5.273355E1,1.06657234E2,7.73852E0,9.020352E1,1.2403689E1,7.011289E0,6.734193E1,7.31097E1,4.3041825E0,1.3753871E2,5.2392612E1,2.719849E0,6.972658E0,1.7135474E2],"tree_param":{"num_deleted":"0","num_feature":"18","num_nodes":"113","size_leaf_vector":"1"}},{"base_weights":[7.7980815E-4,2.6654548E-3,-3.3685273E-1,2.0092656E-1,-6.450137E-3,-8.346714E-1,2.4749179E-1,1.2783678E-1,-2.1631429E-2,-1.8051691E-1,-1.1201926E0,4.3292752E-1,8.883474E-2,1.9836627E-2,7.562391E-1,-9.94757E-1,-1.462157E-2,-5.80447E-1,5.37595E-1,-1.4126666E-1,-1.2309934E0,3.0467296E-1,1.6795759E0,-6.899987E-1,2.0507489E-1,8.130898E-2,-7.5700545E-1,1.0246567E0,2.0430072E-1,-6.000768E-1,-3.5942447E-1,8.3650666E-1,-1.8333267E-2,-2.8301114E-1,-2.9363655E-2,2.8026736E-1,-6.9632417E-1,-2.0854312E-1,1.9607078E-1,-2.0872556E-1,-4.3763694E-1,1.094539E-1,-3.1315994E-1,-3.399226E-1,5.112089E-1,-7.495279E-2,-4.1056743E-1,1.1750412E-2,2.1615684E-1,-3.3646226E-2,7.706585E-2,-4.1065845E-1,-9.466429E-2,-4.2737222E-1,3.1508547E-1,-3.2947224E-1,7.4415244E-2,-1.4097472E-1,-2.75466E-1,1.6562738E-1,3.5084152E-1,-1.1769665E-1,-3.4411838E-3],"categories":[],"categories_nodes":[],"categories_segments":[],"categories_sizes":[],"default_left":[0,0,0,0,0,0,0,0,0,0,0,0,0,0,0,0,0,0,0,0,0,0,0,0,0,0,0,0,0,0,0,0,0,0,0,0,0,0,0,0,0,0,0,0,0,0,0,0,0,0,0,0,0,0,0,0,0,0,0,0,0,0,0],"id":12,"left_children":[1,3,-1,5,7,9,11,13,15,17,19,21,23,25,27,29,31,33,35,37,39,41,43,45,47,49,51,53,55,57,-1,59,61,-1,-1,-1,-1,-1,-1,-1,-1,-1,-1,-1,-1,-1,-1,-1,-1,-1,-1,-1,-1,-1,-1,-1,-1,-1,-1,-1,-1,-1,-1],"loss_changes":[2.2465086E2,1.9130345E2,0E0,2.245835E2,2.063134E2,3.723546E1,1.3098581E2,6.975864E2,6.202063E2,1.8145897E1,1.4940369E1,3.2776874E2,2.1753433E2,4.1898172E2,2.2312128E2,5.1462524E1,2.8519827E2,6.9770403E0,2.7942223E1,7.18913E0,1.4231644E1,1.5154643E2,1.5088623E1,9.286653E1,1.7871909E2,2.7618756E2,1.7334628E2,6.51427E1,2.8451324E1,8.806732E0,0E0,3.647534E1,2.3068173E2,0E0,0E0,0E0,0E0,0E0,0E0,0E0,0E0,0E0,0E0,0E0,0E0,0E0,0E0,0E0,0E0,0E0,0E0,0E0,0E0,0E0,0E0,0E0,0E0,0E0,0E0,0E0,0E0,0E0,0E0],"parents":[2147483647,0,0,1,1,3,3,4,4,5,5,6,6,7,7,8,8,9,9,10,10,11,11,12,12,13,13,14,14,15,15,16,16,17,17,18,18,19,19,20,20,21,21,22,22,23,23,24,24,25,25,26,26,27,27,28,28,29,29,31,31,32,32],"right_children":[2,4,-1,6,8,10,12,14,16,18,20,22,24,26,28,30,32,34,36,38,40,42,44,46,48,50,52,54,56,58,-1,60,62,-1,-1,-1,-1,-1,-1,-1,-1,-1,-1,-1,-1,-1,-1,-1,-1,-1,-1,-1,-1,-1,-1,-1,-1,-1,-1,-1,-1,-1,-1],"split_conditions":[4.964E3,3.139E3,-3.3685273E-1,3.39E2,4.55E2,9.28E2,2.366E3,4.24E2,6.21E2,2.79E2,2.018E3,2.306E3,2.827E3,3.8E2,4.34E2,5.07E2,6.28E2,3.64E2,2.98E2,3.463E3,1.08E2,2.128E3,1.58E2,2.681E3,2.596E3,2.49E2,4E2,2.247E4,5.589E3,5.5968E4,-3.5942447E-1,6.6879E4,7.63E2,-2.8301114E-1,-2.9363655E-2,2.8026736E-1,-6.9632417E-1,-2.0854312E-1,1.9607078E-1,-2.0872556E-1,-4.3763694E-1,1.094539E-1,-3.1315994E-1,-3.399226E-1,5.112089E-1,-7.495279E-2,-4.1056743E-1,1.1750412E-2,2.1615684E-1,-3.3646226E-2,7.706585E-2,-4.1065845E-1,-9.466429E-2,-4.2737222E-1,3.1508547E-1,-3.2947224E-1,7.4415244E-2,-1.4097472E-1,-2.75466E-1,1.6562738E-1,3.5084152E-1,-1.1769665E-1,-3.4411838E-3],"split_indices":[16,0,0,16,16,0,16,16,16,16,7,16,16,16,16,16,16,0,16,4,16,16,2,16,0,16,16,0,2,0,0,0,16,0,0,0,0,0,0,0,0,0,0,0,0,0,0,0,0,0,0,0,0,0,0,0,0,0,0,0,0,0,0],"split_type":[0,0,0,0,0,0,0,0,0,0,0,0,0,0,0,0,0,0,0,0,0,0,0,0,0,0,0,0,0,0,0,0,0,0,0,0,0,0,0,0,0,0,0,0,0,0,0,0,0,0,0,0,0,0,0,0,0,0,0,0,0,0,0],"sum_hessian":[1.0602726E5,1.0585062E5,1.7663934E2,4.651917E3,1.01198695E5,1.9944261E2,4.452474E3,1.0277867E4,9.092083E4,6.1096752E1,1.3834586E2,2.0521853E3,2.400289E3,8.771404E3,1.5064628E3,6.492516E2,9.027158E4,3.936522E1,2.1731533E1,1.4297985E1,1.2404787E2,1.8618804E3,1.9030496E2,3.1107632E2,2.0892126E3,8.1290396E3,6.423643E2,1.0129772E3,4.9348557E2,2.220921E2,4.2715945E2,3.9098328E2,8.988059E4,2.1922867E1,1.7442352E1,1.9674915E1,2.0566177E0,8.500136E0,5.7978487E0,3.8243446E1,8.580442E1,1.7830481E3,7.883219E1,1.2495222E0,1.8905544E2,1.8951393E2,1.215624E2,1.5813126E3,5.079001E2,3.867701E3,4.261339E3,2.68343E2,3.7402136E2,9.924522E0,1.0030527E3,1.5253419E1,4.7823215E2,1.5936752E2,6.272457E1,2.1229831E2,1.7868495E2,1.618568E3,8.826203E4],"tree_param":{"num_deleted":"0","num_feature":"18","num_nodes":"63","size_leaf_vector":"1"}},{"base_weights":[5.5650406E-4,8.7589726E-2,-1.758472E-2,5.390737E-2,6.471384E-1,-3.7747663E-1,4.422491E-3,8.497108E-2,-8.6520684E-1,1.3416531E0,2.381678E-1,1.4768787E-2,-8.252092E-1,4.7722936E-1,-1.2874666E-2,4.8618242E-2,5.336038E-1,-9.937389E-1,1.7559549E0,4.037048E-1,5.7894367E-1,3.8405746E-1,-4.5085242E-1,-4.8744792E-1,7.915957E-1,-1.0847552E0,-6.8566996E-1,-1.6897542E-2,1.2542655E0,-5.2636176E-1,3.8858745E-3,8.2475446E-2,-1.0297468E0,9.7215897E-1,5.3167976E-2,-8.073939E-1,-3.7137407E-1,6.1531585E-1,-2.7500162E-1,4.8359904E-2,2.4408635E-1,1.9815733E-1,4.770415E-1,-7.0168823E-1,1.0010623E0,-7.017136E-1,-2.3003854E-1,-4.5045802E-1,8.0749357E-1,-3.733786E-1,-1.0051385E0,-4.5221412E-1,-1.0478609E0,-1.558593E-1,1.1059229E0,9.2799217E-1,1.4988972E0,-1.1615667E-1,-8.383673E-1,1.1413372E0,-1.2483041E-2,7.7450383E-3,1.16186485E-1,3.4103423E-1,1.8336388E-1,-9.6218914E-2,3.894482E-1,-1.7087635E-1,-2.780283E-1,9.645253E-2,-5.893125E-1,-8.938759E-2,-3.084899E-1,-1.9102636E-1,3.6166865E-1,-3.4815997E-2,-3.0617225E-1,3.0667225E-1,-7.683007E-2,2.972016E-1,1.883548E-1,-2.6872006E-1,-3.369615E-1,-2.0841135E-1,6.185093E-4,-3.933149E-1,-2.4687028E-1,6.725712E-2,-3.177453E-1,3.4653086E-2,3.4120122E-1,4.705784E-1,2.1473174E-1,3.894606E-1,4.5766562E-1,-2.2941385E-1,5.794084E-1,-5.039582E-1,-1.3790888E-1,2.590133E-1,6.3929343E-1,-4.6369517E-1,5.564045E-4],"categories":[],"categories_nodes":[],"categories_segments":[],"categories_sizes":[],"default_left":[0,0,0,0,0,0,0,0,0,0,0,0,0,0,0,0,0,0,0,0,0,0,0,0,0,0,0,0,0,0,0,0,0,0,0,0,0,0,0,0,0,0,0,0,0,0,0,0,0,0,0,0,0,0,0,0,0,0,0,0,0,0,0,0,0,0,0,0,0,0,0,0,0,0,0,0,0,0,0,0,0,0,0,0,0,0,0,0,0,0,0,0,0,0,0,0,0,0,0,0,0,0,0],"id":13,"left_children":[1,3,5,7,9,11,13,15,17,19,21,23,25,27,29,31,33,35,37,-1,39,41,43,45,47,49,51,53,55,57,59,61,-1,63,65,67,-1,-1,-1,-1,-1,69,-1,71,73,75,77,-1,79,-1,81,83,85,87,89,91,93,95,97,99,101,-1,-1,-1,-1,-1,-1,-1,-1,-1,-1,-1,-1,-1,-1,-1,-1,-1,-1,-1,-1,-1,-1,-1,-1,-1,-1,-1,-1,-1,-1,-1,-1,-1,-1,-1,-1,-1,-1,-1,-1,-1,-1],"loss_changes":[1.6605714E2,3.4186786E2,6.8931696E2,4.8864337E2,2.922143E2,8.808068E2,6.7076746E2,2.699478E2,1.9025174E2,3.9337158E-1,6.545431E1,1.0437213E3,8.407703E1,1.1114448E3,6.809719E2,1.8051877E3,2.6136078E2,2.32984E1,2.2793E1,0E0,2.3745275E-1,1.1997145E2,4.2198196E1,8.9455475E1,3.9507202E1,9.148254E0,1.2854602E2,2.76413E2,8.842151E1,3.2000153E2,1.426671E3,2.6193472E2,0E0,3.784253E1,2.765215E2,8.151138E0,0E0,0E0,0E0,0E0,0E0,1.24932846E2,0E0,1.2582195E1,6.527399E0,1.6538297E2,2.4399757E1,0E0,3.372821E1,0E0,6.1068726E0,1.0240143E2,3.4284363E1,5.413875E2,5.9389496E0,6.478308E1,1.4510498E0,1.4378292E3,4.5183527E2,2.9718848E2,1.6604951E3,0E0,0E0,0E0,0E0,0E0,0E0,0E0,0E0,0E0,0E0,0E0,0E0,0E0,0E0,0E0,0E0,0E0,0E0,0E0,0E0,0E0,0E0,0E0,0E0,0E0,0E0,0E0,0E0,0E0,0E0,0E0,0E0,0E0,0E0,0E0,0E0,0E0,0E0,0E0,0E0,0E0,0E0],"parents":[2147483647,0,0,1,1,2,2,3,3,4,4,5,5,6,6,7,7,8,8,9,9,10,10,11,11,12,12,13,13,14,14,15,15,16,16,17,17,18,18,20,20,21,21,22,22,23,23,24,24,25,25,26,26,27,27,28,28,29,29,30,30,31,31,33,33,34,34,35,35,41,41,43,43,44,44,45,45,46,46,48,48,50,50,51,51,52,52,53,53,54,54,55,55,56,56,57,57,58,58,59,59,60,60],"right_children":[2,4,6,8,10,12,14,16,18,20,22,24,26,28,30,32,34,36,38,-1,40,42,44,46,48,50,52,54,56,58,60,62,-1,64,66,68,-1,-1,-1,-1,-1,70,-1,72,74,76,78,-1,80,-1,82,84,86,88,90,92,94,96,98,100,102,-1,-1,-1,-1,-1,-1,-1,-1,-1,-1,-1,-1,-1,-1,-1,-1,-1,-1,-1,-1,-1,-1,-1,-1,-1,-1,-1,-1,-1,-1,-1,-1,-1,-1,-1,-1,-1,-1,-1,-1,-1,-1],"split_conditions":[8.55E2,8.35E2,1.178E3,8.14E2,8.39E2,1.006E3,1.235E3,7.98E2,7.2607E4,7.0072E4,5.5114E4,9.93E2,1.048E3,1.226E3,1.397E3,7.96E2,8.03E2,8.28E2,7.2991E4,4.037048E-1,4.971E3,3.80641E5,7.2181E4,9.66E2,6.45E2,1.019E3,1.155E3,7.3214E4,1.233E3,2.803E4,1.42E3,7.63E2,-1.0297468E0,8E2,6.794E4,2.6215E4,-3.7137407E-1,6.1531585E-1,-2.7500162E-1,4.8359904E-2,2.4408635E-1,5.2117E4,4.770415E-1,1.30929E5,1.476E3,8.67E2,1.357E3,-4.5045802E-1,2.3361E4,-3.733786E-1,1.039E3,1.114E3,1.166E3,4.5664E4,1.215E3,2.7747E4,6.45E2,1.98482E5,1.261E3,6.794E4,1.483E3,7.7450383E-3,1.16186485E-1,3.4103423E-1,1.8336388E-1,-9.6218914E-2,3.894482E-1,-1.7087635E-1,-2.780283E-1,9.645253E-2,-5.893125E-1,-8.938759E-2,-3.084899E-1,-1.9102636E-1,3.6166865E-1,-3.4815997E-2,-3.0617225E-1,3.0667225E-1,-7.683007E-2,2.972016E-1,1.883548E-1,-2.6872006E-1,-3.369615E-1,-2.0841135E-1,6.185093E-4,-3.933149E-1,-2.4687028E-1,6.725712E-2,-3.177453E-1,3.4653086E-2,3.4120122E-1,4.705784E-1,2.1473174E-1,3.894606E-1,4.5766562E-1,-2.2941385E-1,5.794084E-1,-5.039582E-1,-1.3790888E-1,2.590133E-1,6.3929343E-1,-4.6369517E-1,5.564045E-4],"split_indices":[16,16,16,16,16,16,16,16,0,0,0,16,16,16,16,16,16,16,0,0,3,14,0,16,0,16,16,0,16,0,16,16,0,16,0,0,0,0,0,0,0,0,0,13,5,16,0,0,0,0,16,16,16,0,16,2,0,14,16,0,16,0,0,0,0,0,0,0,0,0,0,0,0,0,0,0,0,0,0,0,0,0,0,0,0,0,0,0,0,0,0,0,0,0,0,0,0,0,0,0,0,0,0],"split_type":[0,0,0,0,0,0,0,0,0,0,0,0,0,0,0,0,0,0,0,0,0,0,0,0,0,0,0,0,0,0,0,0,0,0,0,0,0,0,0,0,0,0,0,0,0,0,0,0,0,0,0,0,0,0,0,0,0,0,0,0,0,0,0,0,0,0,0,0,0,0,0,0,0,0,0,0,0,0,0,0,0,0,0,0,0,0,0,0,0,0,0,0,0,0,0,0,0,0,0,0,0,0,0],"sum_hessian":[1.05171414E5,1.8140043E4,8.7031375E4,1.7111125E4,1.0289177E3,5.014315E3,8.201706E4,1.6552596E4,5.5852783E2,3.8048938E2,6.4842834E2,2.6732903E3,2.3410247E3,2.8936755E3,7.912338E4,1.5312896E4,1.2396998E3,5.330118E2,2.5516045E1,3.7772943E2,2.759961E0,5.3548914E2,1.12939186E2,1.6238485E3,1.0494417E3,8.1616547E2,1.5248591E3,1.769443E3,1.1242324E3,2.5000415E3,7.662334E4,1.5166365E4,1.4653157E2,6.475629E2,5.921369E2,3.0474695E2,2.2826485E2,2.3188282E1,2.3277633E0,1.5995454E0,1.1604154E0,4.6498294E2,7.050619E1,9.674247E1,1.6196716E1,8.852483E2,7.386003E2,6.5821314E0,1.0428595E3,2.6650055E2,5.4966486E2,9.28578E2,5.962811E2,1.5753383E3,1.9410477E2,4.8378537E2,6.404471E2,1.0806473E3,1.4193942E3,1.0860583E3,7.553728E4,1.2790036E4,2.376329E3,4.4325287E2,2.0431006E2,4.5594836E2,1.3618857E2,1.0377517E2,2.0097177E2,4.4069687E2,2.4286076E1,4.4118782E1,5.2623688E1,1.5632329E0,1.4633483E1,3.125474E2,5.727009E2,1.4278643E1,7.243216E2,5.141153E2,5.287442E2,2.89754E2,2.599109E2,6.0506683E2,3.2351117E2,2.725671E2,3.23714E2,1.1093455E3,4.6599274E2,6.11121E0,1.8799356E2,1.1879668E2,3.649887E2,8.0914215E1,5.5953284E2,8.211672E2,2.594801E2,4.3943448E2,9.7995966E2,8.493692E2,2.3668913E2,6.988677E2,7.4838414E4],"tree_param":{"num_deleted":"0","num_feature":"18","num_nodes":"103","size_leaf_vector":"1"}},{"base_weights":[2.0087721E-4,1.6233393E-3,-3.253871E-1,-1.0740325E-2,1.199868E-1,9.51437E-3,-9.91642E-1,1.1950681E0,4.691652E-2,-5.66165E-3,3.5463774E-1,-6.623265E-1,-1.1794585E0,1.2721589E0,1.1196846E0,-9.878451E-1,8.307327E-2,9.103389E-3,-1.0416596E0,1.1657794E0,1.2062311E-1,-1.0755683E0,-2.8791365E-1,-1.2447069E0,-9.598421E-1,1.2778125E0,4.3097678E-1,-1.0090061E0,1.1786232E0,-1.1020916E0,-3.960656E-1,4.9920684E-1,-3.098269E-2,-3.0094695E-3,2.305008E-1,-4.0868297E-1,-2.681254E-1,-3.750457E-1,3.5872102E-1,-4.3446206E-2,1.7830184E-1,3.8032165E-1,-3.265872E-1,-2.0155704E-2,-4.6771032E-1,-2.1146314E-1,-3.7557125E-1,-3.0057693E-1,3.621673E-1,1.0107567E-1,3.8420096E-1,-6.4223185E-2,2.4510333E-1,1.059465E-2,-5.904038E-1,1.7857526E-1,3.613199E-1,-2.7813527E-1,-4.2274144E-1,-2.7146075E-2,-6.331797E-1,-9.581274E-2,2.3007286E-1,-2.6494697E-2,1.2212651E-1],"categories":[],"categories_nodes":[],"categories_segments":[],"categories_sizes":[],"default_left":[0,0,0,0,0,0,0,0,0,0,0,0,0,0,0,0,0,0,0,0,0,0,0,0,0,0,0,0,0,0,0,0,0,0,0,0,0,0,0,0,0,0,0,0,0,0,0,0,0,0,0,0,0,0,0,0,0,0,0,0,0,0,0,0,0],"id":14,"left_children":[1,3,-1,5,7,9,11,13,15,17,19,21,23,25,27,29,31,33,35,37,39,41,43,45,47,49,51,53,55,57,59,61,63,-1,-1,-1,-1,-1,-1,-1,-1,-1,-1,-1,-1,-1,-1,-1,-1,-1,-1,-1,-1,-1,-1,-1,-1,-1,-1,-1,-1,-1,-1,-1,-1],"loss_changes":[1.6005476E2,1.5158888E2,0E0,1.8634098E3,7.695458E2,4.8130157E2,1.1658081E2,2.1985474E0,3.4332773E2,1.3464664E3,7.3457465E2,1.0667044E2,1.610205E1,8.80249E-1,4.1783203E1,2.0510376E1,4.2079556E2,1.2608486E3,5.7438232E1,6.4209595E1,3.7796005E2,1.1424133E1,1.0205799E2,2.7200928E0,2.682074E1,3.7069702E-1,1.0508528E0,9.33941E0,4.024292E0,1.2615387E1,2.6893719E1,4.1819043E2,1.7482481E2,0E0,0E0,0E0,0E0,0E0,0E0,0E0,0E0,0E0,0E0,0E0,0E0,0E0,0E0,0E0,0E0,0E0,0E0,0E0,0E0,0E0,0E0,0E0,0E0,0E0,0E0,0E0,0E0,0E0,0E0,0E0,0E0],"parents":[2147483647,0,0,1,1,3,3,4,4,5,5,6,6,7,7,8,8,9,9,10,10,11,11,12,12,13,13,14,14,15,15,16,16,17,17,18,18,19,19,20,20,21,21,22,22,23,23,24,24,25,25,26,26,27,27,28,28,29,29,30,30,31,31,32,32],"right_children":[2,4,-1,6,8,10,12,14,16,18,20,22,24,26,28,30,32,34,36,38,40,42,44,46,48,50,52,54,56,58,60,62,64,-1,-1,-1,-1,-1,-1,-1,-1,-1,-1,-1,-1,-1,-1,-1,-1,-1,-1,-1,-1,-1,-1,-1,-1,-1,-1,-1,-1,-1,-1,-1,-1],"split_conditions":[4.964E3,4.499E3,-3.253871E-1,4.253E3,4.505E3,4.127E3,4.286E3,2.5045E4,4.539E3,4.047E3,4.137E3,4.272E3,4.444E3,4.969E3,2.781E4,6.4042E4,4.574E3,4.019E3,4.071E3,4.447E3,4.224E3,6.45E2,6.1954E4,1.964E3,7.3363E4,3.62E2,3E1,6.105E3,3.0432E4,4.1729E4,7.1857E4,4.552E3,6.7752E4,-3.0094695E-3,2.305008E-1,-4.0868297E-1,-2.681254E-1,-3.750457E-1,3.5872102E-1,-4.3446206E-2,1.7830184E-1,3.8032165E-1,-3.265872E-1,-2.0155704E-2,-4.6771032E-1,-2.1146314E-1,-3.7557125E-1,-3.0057693E-1,3.621673E-1,1.0107567E-1,3.8420096E-1,-6.4223185E-2,2.4510333E-1,1.059465E-2,-5.904038E-1,1.7857526E-1,3.613199E-1,-2.7813527E-1,-4.2274144E-1,-2.7146075E-2,-6.331797E-1,-9.581274E-2,2.3007286E-1,-2.6494697E-2,1.2212651E-1],"split_indices":[16,16,0,16,16,16,16,0,16,16,16,16,16,4,0,0,16,16,16,0,16,0,0,2,0,7,17,3,0,0,0,16,0,0,0,0,0,0,0,0,0,0,0,0,0,0,0,0,0,0,0,0,0,0,0,0,0,0,0,0,0,0,0,0,0],"split_type":[0,0,0,0,0,0,0,0,0,0,0,0,0,0,0,0,0,0,0,0,0,0,0,0,0,0,0,0,0,0,0,0,0,0,0,0,0,0,0,0,0,0,0,0,0,0,0,0,0,0,0,0,0,0,0,0,0,0,0,0,0,0,0,0,0],"sum_hessian":[1.0371928E5,1.0358446E5,1.3482527E2,9.3788664E4,9.795793E3,9.189217E4,1.8964963E3,6.2244336E2,9.17335E3,8.802256E4,3.8696096E3,6.9042993E2,1.2060664E3,2.998881E2,3.225553E2,3.0882547E2,8.864524E3,8.6786664E4,1.2358921E3,8.6552936E2,3.00408E3,3.2730676E2,3.6312317E2,9.2621796E2,2.7984845E2,2.973704E2,2.5176854E0,8.255921E0,3.1429938E2,2.581297E2,5.0695774E1,1.9062366E3,6.9582876E3,8.465412E4,2.1325525E3,3.8756567E2,8.4832635E2,1.0102122E1,8.5542725E2,1.9257136E3,1.0783666E3,1.281014E0,3.2602576E2,3.10294E2,5.2829174E1,1.3487981E1,9.1273E2,2.7504517E2,4.8032784E0,1.2603655E0,2.9611002E2,1.1093811E0,1.4083045E0,4.4132423E0,3.842679E0,1.4319252E1,2.9998013E2,1.669887E2,9.114101E1,4.3920643E1,6.775132E0,4.6972272E2,1.4365139E3,6.153713E3,8.0457446E2],"tree_param":{"num_deleted":"0","num_feature":"18","num_nodes":"65","size_leaf_vector":"1"}},{"base_weights":[8.367279E-5,2.9148782E-2,-5.6725863E-2,1.4479645E-2,6.536534E-1,-8.7902844E-1,-1.8418925E-2,2.5576182E-2,-4.2441177E-1,4.620621E-1,7.0585877E-1,-9.5174384E-1,-5.1218367E-1,5.59613E-1,-4.9003422E-2,-1.5080549E-2,2.679412E-1,-3.685237E-1,-2.4153431E-1,2.2283594E-1,9.0515566E-1,-5.2192146E-1,7.102097E-1,-6.905799E-1,-1.169202E0,-9.1862327E-1,-4.3830544E-1,7.8035104E-1,3.19831E-1,-5.443128E-1,2.5838254E-2,-7.7128676E-3,-1.8719032E0,9.139334E-1,1.7944893E-1,2.7955976E-1,-5.5489826E-1,7.101398E-1,-4.168867E-1,1.0033588E0,-8.312811E-1,9.71498E-2,-8.354219E-1,8.380113E-1,6.775144E-1,-3.673103E-1,-2.973995E-1,-1.0941669E0,-3.6079618E-1,-1.05060026E-1,-1.0585321E0,4.060951E-1,-5.0152946E-1,-3.8103235E-1,8.129906E-1,-1.2210896E0,6.1567324E-1,-8.1813693E-1,-3.212013E-1,3.3783138E-1,-4.7403056E-2,2.5354684E-3,-6.779427E-2,-1.747709E-1,-6.115196E-1,1.9992267E-1,3.6906785E-1,1.1872554E-2,1.5041728E-1,1.5305516E-1,-2.7797347E-1,-2.9751306E-2,-1.8949927E-1,1.1639565E-1,5.135894E-1,-4.296073E-1,-7.564135E-2,2.5181678E-1,7.7423483E-1,-3.8096824E-1,1.8188572E-1,-3.500484E-2,-3.2916665E-1,1.0454374E-1,2.7366033E-1,5.5223163E-2,2.1393761E-1,1.2491138E-1,-1.3754989E-1,-2.6335654E-1,-3.447672E-1,-2.1405162E-1,3.2647818E-1,-2.0748073E-1,-3.5563207E-1,-1.24061955E-2,2.8866893E-1,-9.315468E-2,-2.1947387E-1,1.8503445E-1,3.2785693E-1,-2.794328E-1,-5.5590355E-1,2.476032E-1,4.2844966E-2,-1.649439E-1,-3.1285724E-1,2.4804395E-2,-1.9067392E-1,1.984262E-2,3.8944724E-1,-2.1627422E-1,9.468414E-3],"categories":[],"categories_nodes":[],"categories_segments":[],"categories_sizes":[],"default_left":[0,0,0,0,0,0,0,0,0,0,0,0,0,0,0,0,0,0,0,0,0,0,0,0,0,0,0,0,0,0,0,0,0,0,0,0,0,0,0,0,0,0,0,0,0,0,0,0,0,0,0,0,0,0,0,0,0,0,0,0,0,0,0,0,0,0,0,0,0,0,0,0,0,0,0,0,0,0,0,0,0,0,0,0,0,0,0,0,0,0,0,0,0,0,0,0,0,0,0,0,0,0,0,0,0,0,0,0,0,0,0,0,0],"id":15,"left_children":[1,3,5,7,9,11,13,15,17,19,21,23,25,27,29,31,33,-1,35,37,39,41,43,45,47,49,51,53,55,57,59,61,63,65,67,69,71,73,75,77,79,-1,81,83,85,-1,87,89,-1,91,93,95,97,-1,99,101,103,105,107,109,111,-1,-1,-1,-1,-1,-1,-1,-1,-1,-1,-1,-1,-1,-1,-1,-1,-1,-1,-1,-1,-1,-1,-1,-1,-1,-1,-1,-1,-1,-1,-1,-1,-1,-1,-1,-1,-1,-1,-1,-1,-1,-1,-1,-1,-1,-1,-1,-1,-1,-1,-1,-1],"loss_changes":[1.692561E2,6.212137E2,1.0928506E3,3.2269336E2,1.5239868E1,4.07063E1,5.860983E2,